digraph Tree {
node [shape=box, style="filled, rounded", color="black", fontname="helvetica"] ;
edge [fontname="helvetica"] ;
0 [label=<ROA - Return On Assets &le; -0.161<br/>gini = 0.5<br/>samples = 4837<br/>value = [3855, 3793]<br/>class = Class 0>, fillcolor="#fffdfc"] ;
1 [label=<Long-term Debt / Capital &le; 0.028<br/>gini = 0.306<br/>samples = 1359<br/>value = [1743, 406]<br/>class = Class 0>, fillcolor="#eb9e67"] ;
0 -> 1 [labeldistance=2.5, labelangle=45, headlabel="True"] ;
2 [label=<EBIT Margin &le; -0.168<br/>gini = 0.446<br/>samples = 653<br/>value = [683, 344]<br/>class = Class 0>, fillcolor="#f2c09d"] ;
1 -> 2 ;
3 [label=<ROI - Return On Investment &le; -0.127<br/>gini = 0.383<br/>samples = 430<br/>value = [506, 176]<br/>class = Class 0>, fillcolor="#eead7e"] ;
2 -> 3 ;
4 [label=<Long-term Debt / Capital &le; -0.032<br/>gini = 0.352<br/>samples = 360<br/>value = [447, 132]<br/>class = Class 0>, fillcolor="#eda673"] ;
3 -> 4 ;
5 [label=<Free Cash Flow Per Share &le; -0.134<br/>gini = 0.458<br/>samples = 154<br/>value = [153, 84]<br/>class = Class 0>, fillcolor="#f3c6a6"] ;
4 -> 5 ;
6 [label=<Debt/Equity Ratio &le; 0.001<br/>gini = 0.474<br/>samples = 47<br/>value = [29, 46]<br/>class = Class 1>, fillcolor="#b6dbf5"] ;
5 -> 6 ;
7 [label=<Net Profit Margin &le; -0.292<br/>gini = 0.227<br/>samples = 16<br/>value = [20, 3]<br/>class = Class 0>, fillcolor="#e99457"] ;
6 -> 7 ;
8 [label=<gini = 0.0<br/>samples = 13<br/>value = [19, 0]<br/>class = Class 0>, fillcolor="#e58139"] ;
7 -> 8 ;
9 [label=<Pre-Tax Profit Margin &le; -0.186<br/>gini = 0.375<br/>samples = 3<br/>value = [1, 3]<br/>class = Class 1>, fillcolor="#7bbeee"] ;
7 -> 9 ;
10 [label=<gini = 0.0<br/>samples = 2<br/>value = [0, 3]<br/>class = Class 1>, fillcolor="#399de5"] ;
9 -> 10 ;
11 [label=<gini = 0.0<br/>samples = 1<br/>value = [1, 0]<br/>class = Class 0>, fillcolor="#e58139"] ;
9 -> 11 ;
12 [label=<Gross Margin &le; -1.38<br/>gini = 0.286<br/>samples = 31<br/>value = [9, 43]<br/>class = Class 1>, fillcolor="#62b2ea"] ;
6 -> 12 ;
13 [label=<Net Profit Margin &le; -0.909<br/>gini = 0.375<br/>samples = 9<br/>value = [9, 3]<br/>class = Class 0>, fillcolor="#eeab7b"] ;
12 -> 13 ;
14 [label=<gini = 0.0<br/>samples = 2<br/>value = [0, 3]<br/>class = Class 1>, fillcolor="#399de5"] ;
13 -> 14 ;
15 [label=<gini = 0.0<br/>samples = 7<br/>value = [9, 0]<br/>class = Class 0>, fillcolor="#e58139"] ;
13 -> 15 ;
16 [label=<gini = 0.0<br/>samples = 22<br/>value = [0, 40]<br/>class = Class 1>, fillcolor="#399de5"] ;
12 -> 16 ;
17 [label=<Current Ratio &le; -0.248<br/>gini = 0.359<br/>samples = 107<br/>value = [124, 38]<br/>class = Class 0>, fillcolor="#eda876"] ;
5 -> 17 ;
18 [label=<Gross Margin &le; 1.319<br/>gini = 0.482<br/>samples = 33<br/>value = [19, 28]<br/>class = Class 1>, fillcolor="#bfe0f7"] ;
17 -> 18 ;
19 [label=<EBITDA Margin &le; 0.503<br/>gini = 0.346<br/>samples = 27<br/>value = [8, 28]<br/>class = Class 1>, fillcolor="#72b9ec"] ;
18 -> 19 ;
20 [label=<Net Profit Margin &le; -1.179<br/>gini = 0.219<br/>samples = 24<br/>value = [4, 28]<br/>class = Class 1>, fillcolor="#55abe9"] ;
19 -> 20 ;
21 [label=<gini = 0.0<br/>samples = 2<br/>value = [2, 0]<br/>class = Class 0>, fillcolor="#e58139"] ;
20 -> 21 ;
22 [label=<Gross Margin &le; -0.303<br/>gini = 0.124<br/>samples = 22<br/>value = [2, 28]<br/>class = Class 1>, fillcolor="#47a4e7"] ;
20 -> 22 ;
23 [label=<gini = 0.0<br/>samples = 14<br/>value = [0, 22]<br/>class = Class 1>, fillcolor="#399de5"] ;
22 -> 23 ;
24 [label=<ROI - Return On Investment &le; -0.597<br/>gini = 0.375<br/>samples = 8<br/>value = [2, 6]<br/>class = Class 1>, fillcolor="#7bbeee"] ;
22 -> 24 ;
25 [label=<gini = 0.0<br/>samples = 1<br/>value = [1, 0]<br/>class = Class 0>, fillcolor="#e58139"] ;
24 -> 25 ;
26 [label=<Free Cash Flow Per Share &le; 0.18<br/>gini = 0.245<br/>samples = 7<br/>value = [1, 6]<br/>class = Class 1>, fillcolor="#5aade9"] ;
24 -> 26 ;
27 [label=<gini = 0.0<br/>samples = 4<br/>value = [0, 4]<br/>class = Class 1>, fillcolor="#399de5"] ;
26 -> 27 ;
28 [label=<gini = 0.444<br/>samples = 3<br/>value = [1, 2]<br/>class = Class 1>, fillcolor="#9ccef2"] ;
26 -> 28 ;
29 [label=<gini = 0.0<br/>samples = 3<br/>value = [4, 0]<br/>class = Class 0>, fillcolor="#e58139"] ;
19 -> 29 ;
30 [label=<gini = 0.0<br/>samples = 6<br/>value = [11, 0]<br/>class = Class 0>, fillcolor="#e58139"] ;
18 -> 30 ;
31 [label=<Return On Tangible Equity &le; -0.079<br/>gini = 0.159<br/>samples = 74<br/>value = [105, 10]<br/>class = Class 0>, fillcolor="#e78d4c"] ;
17 -> 31 ;
32 [label=<ROA - Return On Assets &le; -6.935<br/>gini = 0.382<br/>samples = 22<br/>value = [26, 9]<br/>class = Class 0>, fillcolor="#eead7e"] ;
31 -> 32 ;
33 [label=<gini = 0.0<br/>samples = 1<br/>value = [0, 2]<br/>class = Class 1>, fillcolor="#399de5"] ;
32 -> 33 ;
34 [label=<Return On Tangible Equity &le; -0.089<br/>gini = 0.334<br/>samples = 21<br/>value = [26, 7]<br/>class = Class 0>, fillcolor="#eca36e"] ;
32 -> 34 ;
35 [label=<EBITDA Margin &le; -1.009<br/>gini = 0.185<br/>samples = 19<br/>value = [26, 3]<br/>class = Class 0>, fillcolor="#e89050"] ;
34 -> 35 ;
36 [label=<EBIT Margin &le; -1.246<br/>gini = 0.5<br/>samples = 5<br/>value = [3, 3]<br/>class = Class 0>, fillcolor="#ffffff"] ;
35 -> 36 ;
37 [label=<gini = 0.0<br/>samples = 3<br/>value = [3, 0]<br/>class = Class 0>, fillcolor="#e58139"] ;
36 -> 37 ;
38 [label=<gini = 0.0<br/>samples = 2<br/>value = [0, 3]<br/>class = Class 1>, fillcolor="#399de5"] ;
36 -> 38 ;
39 [label=<gini = 0.0<br/>samples = 14<br/>value = [23, 0]<br/>class = Class 0>, fillcolor="#e58139"] ;
35 -> 39 ;
40 [label=<gini = 0.0<br/>samples = 2<br/>value = [0, 4]<br/>class = Class 1>, fillcolor="#399de5"] ;
34 -> 40 ;
41 [label=<Long-term Debt / Capital &le; -0.04<br/>gini = 0.025<br/>samples = 52<br/>value = [79, 1]<br/>class = Class 0>, fillcolor="#e5833c"] ;
31 -> 41 ;
42 [label=<gini = 0.0<br/>samples = 47<br/>value = [73, 0]<br/>class = Class 0>, fillcolor="#e58139"] ;
41 -> 42 ;
43 [label=<Net Profit Margin &le; -0.156<br/>gini = 0.245<br/>samples = 5<br/>value = [6, 1]<br/>class = Class 0>, fillcolor="#e9965a"] ;
41 -> 43 ;
44 [label=<gini = 0.0<br/>samples = 4<br/>value = [6, 0]<br/>class = Class 0>, fillcolor="#e58139"] ;
43 -> 44 ;
45 [label=<gini = 0.0<br/>samples = 1<br/>value = [0, 1]<br/>class = Class 1>, fillcolor="#399de5"] ;
43 -> 45 ;
46 [label=<Return On Tangible Equity &le; -2.316<br/>gini = 0.241<br/>samples = 206<br/>value = [294, 48]<br/>class = Class 0>, fillcolor="#e99659"] ;
4 -> 46 ;
47 [label=<gini = 0.0<br/>samples = 1<br/>value = [0, 3]<br/>class = Class 1>, fillcolor="#399de5"] ;
46 -> 47 ;
48 [label=<Current Ratio &le; -0.355<br/>gini = 0.23<br/>samples = 205<br/>value = [294, 45]<br/>class = Class 0>, fillcolor="#e99457"] ;
46 -> 48 ;
49 [label=<Operating Cash Flow Per Share &le; 0.192<br/>gini = 0.499<br/>samples = 27<br/>value = [22, 20]<br/>class = Class 0>, fillcolor="#fdf4ed"] ;
48 -> 49 ;
50 [label=<Asset Turnover &le; -0.902<br/>gini = 0.366<br/>samples = 19<br/>value = [22, 7]<br/>class = Class 0>, fillcolor="#eda978"] ;
49 -> 50 ;
51 [label=<gini = 0.0<br/>samples = 10<br/>value = [17, 0]<br/>class = Class 0>, fillcolor="#e58139"] ;
50 -> 51 ;
52 [label=<Asset Turnover &le; -0.557<br/>gini = 0.486<br/>samples = 9<br/>value = [5, 7]<br/>class = Class 1>, fillcolor="#c6e3f8"] ;
50 -> 52 ;
53 [label=<gini = 0.0<br/>samples = 3<br/>value = [0, 5]<br/>class = Class 1>, fillcolor="#399de5"] ;
52 -> 53 ;
54 [label=<Asset Turnover &le; 0.911<br/>gini = 0.408<br/>samples = 6<br/>value = [5, 2]<br/>class = Class 0>, fillcolor="#efb388"] ;
52 -> 54 ;
55 [label=<gini = 0.0<br/>samples = 4<br/>value = [5, 0]<br/>class = Class 0>, fillcolor="#e58139"] ;
54 -> 55 ;
56 [label=<gini = 0.0<br/>samples = 2<br/>value = [0, 2]<br/>class = Class 1>, fillcolor="#399de5"] ;
54 -> 56 ;
57 [label=<gini = 0.0<br/>samples = 8<br/>value = [0, 13]<br/>class = Class 1>, fillcolor="#399de5"] ;
49 -> 57 ;
58 [label=<Pre-Tax Profit Margin &le; -2.553<br/>gini = 0.154<br/>samples = 178<br/>value = [272, 25]<br/>class = Class 0>, fillcolor="#e78d4b"] ;
48 -> 58 ;
59 [label=<ROA - Return On Assets &le; -5.732<br/>gini = 0.49<br/>samples = 7<br/>value = [8, 6]<br/>class = Class 0>, fillcolor="#f8e0ce"] ;
58 -> 59 ;
60 [label=<gini = 0.0<br/>samples = 3<br/>value = [6, 0]<br/>class = Class 0>, fillcolor="#e58139"] ;
59 -> 60 ;
61 [label=<Free Cash Flow Per Share &le; -0.089<br/>gini = 0.375<br/>samples = 4<br/>value = [2, 6]<br/>class = Class 1>, fillcolor="#7bbeee"] ;
59 -> 61 ;
62 [label=<gini = 0.5<br/>samples = 2<br/>value = [2, 2]<br/>class = Class 0>, fillcolor="#ffffff"] ;
61 -> 62 ;
63 [label=<gini = 0.0<br/>samples = 2<br/>value = [0, 4]<br/>class = Class 1>, fillcolor="#399de5"] ;
61 -> 63 ;
64 [label=<ROI - Return On Investment &le; -0.179<br/>gini = 0.125<br/>samples = 171<br/>value = [264, 19]<br/>class = Class 0>, fillcolor="#e78a47"] ;
58 -> 64 ;
65 [label=<Free Cash Flow Per Share &le; 0.406<br/>gini = 0.169<br/>samples = 126<br/>value = [185, 19]<br/>class = Class 0>, fillcolor="#e88e4d"] ;
64 -> 65 ;
66 [label=<Asset Turnover &le; -0.656<br/>gini = 0.143<br/>samples = 119<br/>value = [179, 15]<br/>class = Class 0>, fillcolor="#e78c4a"] ;
65 -> 66 ;
67 [label=<gini = 0.0<br/>samples = 34<br/>value = [56, 0]<br/>class = Class 0>, fillcolor="#e58139"] ;
66 -> 67 ;
68 [label=<Asset Turnover &le; -0.632<br/>gini = 0.194<br/>samples = 85<br/>value = [123, 15]<br/>class = Class 0>, fillcolor="#e89051"] ;
66 -> 68 ;
69 [label=<gini = 0.0<br/>samples = 2<br/>value = [0, 3]<br/>class = Class 1>, fillcolor="#399de5"] ;
68 -> 69 ;
70 [label=<Current Ratio &le; 2.952<br/>gini = 0.162<br/>samples = 83<br/>value = [123, 12]<br/>class = Class 0>, fillcolor="#e88d4c"] ;
68 -> 70 ;
71 [label=<Operating Cash Flow Per Share &le; 5.239<br/>gini = 0.151<br/>samples = 82<br/>value = [123, 11]<br/>class = Class 0>, fillcolor="#e78c4b"] ;
70 -> 71 ;
72 [label=<Current Ratio &le; -0.171<br/>gini = 0.14<br/>samples = 80<br/>value = [122, 10]<br/>class = Class 0>, fillcolor="#e78b49"] ;
71 -> 72 ;
73 [label=<EBIT Margin &le; -0.273<br/>gini = 0.363<br/>samples = 11<br/>value = [16, 5]<br/>class = Class 0>, fillcolor="#eda877"] ;
72 -> 73 ;
74 [label=<ROE - Return On Equity &le; -0.103<br/>gini = 0.32<br/>samples = 10<br/>value = [16, 4]<br/>class = Class 0>, fillcolor="#eca06a"] ;
73 -> 74 ;
75 [label=<gini = 0.48<br/>samples = 3<br/>value = [3, 2]<br/>class = Class 0>, fillcolor="#f6d5bd"] ;
74 -> 75 ;
76 [label=<Gross Margin &le; 0.199<br/>gini = 0.231<br/>samples = 7<br/>value = [13, 2]<br/>class = Class 0>, fillcolor="#e99457"] ;
74 -> 76 ;
77 [label=<gini = 0.0<br/>samples = 3<br/>value = [5, 0]<br/>class = Class 0>, fillcolor="#e58139"] ;
76 -> 77 ;
78 [label=<gini = 0.32<br/>samples = 4<br/>value = [8, 2]<br/>class = Class 0>, fillcolor="#eca06a"] ;
76 -> 78 ;
79 [label=<gini = 0.0<br/>samples = 1<br/>value = [0, 1]<br/>class = Class 1>, fillcolor="#399de5"] ;
73 -> 79 ;
80 [label=<Operating Margin &le; -0.18<br/>gini = 0.086<br/>samples = 69<br/>value = [106, 5]<br/>class = Class 0>, fillcolor="#e68742"] ;
72 -> 80 ;
81 [label=<EBITDA Margin &le; -0.462<br/>gini = 0.058<br/>samples = 63<br/>value = [98, 3]<br/>class = Class 0>, fillcolor="#e6853f"] ;
80 -> 81 ;
82 [label=<gini = 0.0<br/>samples = 32<br/>value = [51, 0]<br/>class = Class 0>, fillcolor="#e58139"] ;
81 -> 82 ;
83 [label=<ROI - Return On Investment &le; -0.263<br/>gini = 0.113<br/>samples = 31<br/>value = [47, 3]<br/>class = Class 0>, fillcolor="#e78946"] ;
81 -> 83 ;
84 [label=<ROI - Return On Investment &le; -0.275<br/>gini = 0.211<br/>samples = 17<br/>value = [22, 3]<br/>class = Class 0>, fillcolor="#e99254"] ;
83 -> 84 ;
85 [label=<Operating Margin &le; -0.242<br/>gini = 0.153<br/>samples = 16<br/>value = [22, 2]<br/>class = Class 0>, fillcolor="#e78c4b"] ;
84 -> 85 ;
86 [label=<Gross Margin &le; 0.572<br/>gini = 0.091<br/>samples = 14<br/>value = [20, 1]<br/>class = Class 0>, fillcolor="#e68743"] ;
85 -> 86 ;
87 [label=<gini = 0.0<br/>samples = 8<br/>value = [11, 0]<br/>class = Class 0>, fillcolor="#e58139"] ;
86 -> 87 ;
88 [label=<gini = 0.18<br/>samples = 6<br/>value = [9, 1]<br/>class = Class 0>, fillcolor="#e88f4f"] ;
86 -> 88 ;
89 [label=<gini = 0.444<br/>samples = 2<br/>value = [2, 1]<br/>class = Class 0>, fillcolor="#f2c09c"] ;
85 -> 89 ;
90 [label=<gini = 0.0<br/>samples = 1<br/>value = [0, 1]<br/>class = Class 1>, fillcolor="#399de5"] ;
84 -> 90 ;
91 [label=<gini = 0.0<br/>samples = 14<br/>value = [25, 0]<br/>class = Class 0>, fillcolor="#e58139"] ;
83 -> 91 ;
92 [label=<Free Cash Flow Per Share &le; 0.077<br/>gini = 0.32<br/>samples = 6<br/>value = [8, 2]<br/>class = Class 0>, fillcolor="#eca06a"] ;
80 -> 92 ;
93 [label=<gini = 0.32<br/>samples = 4<br/>value = [4, 1]<br/>class = Class 0>, fillcolor="#eca06a"] ;
92 -> 93 ;
94 [label=<gini = 0.32<br/>samples = 2<br/>value = [4, 1]<br/>class = Class 0>, fillcolor="#eca06a"] ;
92 -> 94 ;
95 [label=<gini = 0.5<br/>samples = 2<br/>value = [1, 1]<br/>class = Class 0>, fillcolor="#ffffff"] ;
71 -> 95 ;
96 [label=<gini = 0.0<br/>samples = 1<br/>value = [0, 1]<br/>class = Class 1>, fillcolor="#399de5"] ;
70 -> 96 ;
97 [label=<Free Cash Flow Per Share &le; 0.473<br/>gini = 0.48<br/>samples = 7<br/>value = [6, 4]<br/>class = Class 0>, fillcolor="#f6d5bd"] ;
65 -> 97 ;
98 [label=<gini = 0.0<br/>samples = 3<br/>value = [0, 4]<br/>class = Class 1>, fillcolor="#399de5"] ;
97 -> 98 ;
99 [label=<gini = 0.0<br/>samples = 4<br/>value = [6, 0]<br/>class = Class 0>, fillcolor="#e58139"] ;
97 -> 99 ;
100 [label=<gini = 0.0<br/>samples = 45<br/>value = [79, 0]<br/>class = Class 0>, fillcolor="#e58139"] ;
64 -> 100 ;
101 [label=<Free Cash Flow Per Share &le; 0.052<br/>gini = 0.489<br/>samples = 70<br/>value = [59, 44]<br/>class = Class 0>, fillcolor="#f8dfcd"] ;
3 -> 101 ;
102 [label=<Free Cash Flow Per Share &le; -0.1<br/>gini = 0.324<br/>samples = 35<br/>value = [43, 11]<br/>class = Class 0>, fillcolor="#eca16c"] ;
101 -> 102 ;
103 [label=<Free Cash Flow Per Share &le; -0.227<br/>gini = 0.486<br/>samples = 16<br/>value = [14, 10]<br/>class = Class 0>, fillcolor="#f8dbc6"] ;
102 -> 103 ;
104 [label=<Pre-Tax Profit Margin &le; -0.123<br/>gini = 0.346<br/>samples = 11<br/>value = [14, 4]<br/>class = Class 0>, fillcolor="#eca572"] ;
103 -> 104 ;
105 [label=<gini = 0.0<br/>samples = 7<br/>value = [11, 0]<br/>class = Class 0>, fillcolor="#e58139"] ;
104 -> 105 ;
106 [label=<Net Profit Margin &le; -0.071<br/>gini = 0.49<br/>samples = 4<br/>value = [3, 4]<br/>class = Class 1>, fillcolor="#cee6f8"] ;
104 -> 106 ;
107 [label=<gini = 0.0<br/>samples = 2<br/>value = [0, 2]<br/>class = Class 1>, fillcolor="#399de5"] ;
106 -> 107 ;
108 [label=<gini = 0.48<br/>samples = 2<br/>value = [3, 2]<br/>class = Class 0>, fillcolor="#f6d5bd"] ;
106 -> 108 ;
109 [label=<gini = 0.0<br/>samples = 5<br/>value = [0, 6]<br/>class = Class 1>, fillcolor="#399de5"] ;
103 -> 109 ;
110 [label=<Asset Turnover &le; -0.22<br/>gini = 0.064<br/>samples = 19<br/>value = [29, 1]<br/>class = Class 0>, fillcolor="#e68540"] ;
102 -> 110 ;
111 [label=<Asset Turnover &le; -0.297<br/>gini = 0.375<br/>samples = 3<br/>value = [3, 1]<br/>class = Class 0>, fillcolor="#eeab7b"] ;
110 -> 111 ;
112 [label=<gini = 0.0<br/>samples = 2<br/>value = [3, 0]<br/>class = Class 0>, fillcolor="#e58139"] ;
111 -> 112 ;
113 [label=<gini = 0.0<br/>samples = 1<br/>value = [0, 1]<br/>class = Class 1>, fillcolor="#399de5"] ;
111 -> 113 ;
114 [label=<gini = 0.0<br/>samples = 16<br/>value = [26, 0]<br/>class = Class 0>, fillcolor="#e58139"] ;
110 -> 114 ;
115 [label=<Net Profit Margin &le; -0.145<br/>gini = 0.44<br/>samples = 35<br/>value = [16, 33]<br/>class = Class 1>, fillcolor="#99cdf2"] ;
101 -> 115 ;
116 [label=<Operating Margin &le; -0.239<br/>gini = 0.091<br/>samples = 14<br/>value = [1, 20]<br/>class = Class 1>, fillcolor="#43a2e6"] ;
115 -> 116 ;
117 [label=<gini = 0.0<br/>samples = 13<br/>value = [0, 20]<br/>class = Class 1>, fillcolor="#399de5"] ;
116 -> 117 ;
118 [label=<gini = 0.0<br/>samples = 1<br/>value = [1, 0]<br/>class = Class 0>, fillcolor="#e58139"] ;
116 -> 118 ;
119 [label=<EBITDA Margin &le; -0.425<br/>gini = 0.497<br/>samples = 21<br/>value = [15, 13]<br/>class = Class 0>, fillcolor="#fceee5"] ;
115 -> 119 ;
120 [label=<gini = 0.0<br/>samples = 11<br/>value = [13, 0]<br/>class = Class 0>, fillcolor="#e58139"] ;
119 -> 120 ;
121 [label=<Current Ratio &le; 0.132<br/>gini = 0.231<br/>samples = 10<br/>value = [2, 13]<br/>class = Class 1>, fillcolor="#57ace9"] ;
119 -> 121 ;
122 [label=<gini = 0.0<br/>samples = 4<br/>value = [0, 7]<br/>class = Class 1>, fillcolor="#399de5"] ;
121 -> 122 ;
123 [label=<ROE - Return On Equity &le; -0.047<br/>gini = 0.375<br/>samples = 6<br/>value = [2, 6]<br/>class = Class 1>, fillcolor="#7bbeee"] ;
121 -> 123 ;
124 [label=<gini = 0.444<br/>samples = 2<br/>value = [1, 2]<br/>class = Class 1>, fillcolor="#9ccef2"] ;
123 -> 124 ;
125 [label=<gini = 0.32<br/>samples = 4<br/>value = [1, 4]<br/>class = Class 1>, fillcolor="#6ab6ec"] ;
123 -> 125 ;
126 [label=<Net Profit Margin &le; 0.122<br/>gini = 0.5<br/>samples = 223<br/>value = [177, 168]<br/>class = Class 0>, fillcolor="#fef9f5"] ;
2 -> 126 ;
127 [label=<ROE - Return On Equity &le; -0.043<br/>gini = 0.48<br/>samples = 181<br/>value = [166, 111]<br/>class = Class 0>, fillcolor="#f6d5bd"] ;
126 -> 127 ;
128 [label=<Free Cash Flow Per Share &le; 0.101<br/>gini = 0.43<br/>samples = 138<br/>value = [147, 67]<br/>class = Class 0>, fillcolor="#f1ba93"] ;
127 -> 128 ;
129 [label=<Debt/Equity Ratio &le; 0.008<br/>gini = 0.308<br/>samples = 107<br/>value = [136, 32]<br/>class = Class 0>, fillcolor="#eb9f68"] ;
128 -> 129 ;
130 [label=<Pre-Tax Profit Margin &le; 0.051<br/>gini = 0.499<br/>samples = 43<br/>value = [32, 30]<br/>class = Class 0>, fillcolor="#fdf7f3"] ;
129 -> 130 ;
131 [label=<Asset Turnover &le; -1.077<br/>gini = 0.231<br/>samples = 20<br/>value = [4, 26]<br/>class = Class 1>, fillcolor="#57ace9"] ;
130 -> 131 ;
132 [label=<gini = 0.0<br/>samples = 2<br/>value = [4, 0]<br/>class = Class 0>, fillcolor="#e58139"] ;
131 -> 132 ;
133 [label=<gini = 0.0<br/>samples = 18<br/>value = [0, 26]<br/>class = Class 1>, fillcolor="#399de5"] ;
131 -> 133 ;
134 [label=<EBITDA Margin &le; 0.101<br/>gini = 0.219<br/>samples = 23<br/>value = [28, 4]<br/>class = Class 0>, fillcolor="#e99355"] ;
130 -> 134 ;
135 [label=<gini = 0.0<br/>samples = 2<br/>value = [0, 3]<br/>class = Class 1>, fillcolor="#399de5"] ;
134 -> 135 ;
136 [label=<ROI - Return On Investment &le; -0.135<br/>gini = 0.067<br/>samples = 21<br/>value = [28, 1]<br/>class = Class 0>, fillcolor="#e68640"] ;
134 -> 136 ;
137 [label=<gini = 0.245<br/>samples = 5<br/>value = [6, 1]<br/>class = Class 0>, fillcolor="#e9965a"] ;
136 -> 137 ;
138 [label=<gini = 0.0<br/>samples = 16<br/>value = [22, 0]<br/>class = Class 0>, fillcolor="#e58139"] ;
136 -> 138 ;
139 [label=<Return On Tangible Equity &le; -0.011<br/>gini = 0.037<br/>samples = 64<br/>value = [104, 2]<br/>class = Class 0>, fillcolor="#e6833d"] ;
129 -> 139 ;
140 [label=<gini = 0.0<br/>samples = 57<br/>value = [94, 0]<br/>class = Class 0>, fillcolor="#e58139"] ;
139 -> 140 ;
141 [label=<ROE - Return On Equity &le; -0.054<br/>gini = 0.278<br/>samples = 7<br/>value = [10, 2]<br/>class = Class 0>, fillcolor="#ea9a61"] ;
139 -> 141 ;
142 [label=<gini = 0.444<br/>samples = 4<br/>value = [4, 2]<br/>class = Class 0>, fillcolor="#f2c09c"] ;
141 -> 142 ;
143 [label=<gini = 0.0<br/>samples = 3<br/>value = [6, 0]<br/>class = Class 0>, fillcolor="#e58139"] ;
141 -> 143 ;
144 [label=<Gross Margin &le; -0.949<br/>gini = 0.364<br/>samples = 31<br/>value = [11, 35]<br/>class = Class 1>, fillcolor="#77bced"] ;
128 -> 144 ;
145 [label=<gini = 0.0<br/>samples = 3<br/>value = [5, 0]<br/>class = Class 0>, fillcolor="#e58139"] ;
144 -> 145 ;
146 [label=<Long-term Debt / Capital &le; 0.023<br/>gini = 0.25<br/>samples = 28<br/>value = [6, 35]<br/>class = Class 1>, fillcolor="#5baee9"] ;
144 -> 146 ;
147 [label=<Net Profit Margin &le; -0.044<br/>gini = 0.102<br/>samples = 26<br/>value = [2, 35]<br/>class = Class 1>, fillcolor="#44a3e6"] ;
146 -> 147 ;
148 [label=<gini = 0.0<br/>samples = 21<br/>value = [0, 31]<br/>class = Class 1>, fillcolor="#399de5"] ;
147 -> 148 ;
149 [label=<Long-term Debt / Capital &le; -0.064<br/>gini = 0.444<br/>samples = 5<br/>value = [2, 4]<br/>class = Class 1>, fillcolor="#9ccef2"] ;
147 -> 149 ;
150 [label=<gini = 0.0<br/>samples = 1<br/>value = [1, 0]<br/>class = Class 0>, fillcolor="#e58139"] ;
149 -> 150 ;
151 [label=<Free Cash Flow Per Share &le; 0.712<br/>gini = 0.32<br/>samples = 4<br/>value = [1, 4]<br/>class = Class 1>, fillcolor="#6ab6ec"] ;
149 -> 151 ;
152 [label=<gini = 0.375<br/>samples = 3<br/>value = [1, 3]<br/>class = Class 1>, fillcolor="#7bbeee"] ;
151 -> 152 ;
153 [label=<gini = 0.0<br/>samples = 1<br/>value = [0, 1]<br/>class = Class 1>, fillcolor="#399de5"] ;
151 -> 153 ;
154 [label=<gini = 0.0<br/>samples = 2<br/>value = [4, 0]<br/>class = Class 0>, fillcolor="#e58139"] ;
146 -> 154 ;
155 [label=<ROA - Return On Assets &le; -0.184<br/>gini = 0.421<br/>samples = 43<br/>value = [19, 44]<br/>class = Class 1>, fillcolor="#8ec7f0"] ;
127 -> 155 ;
156 [label=<Pre-Tax Profit Margin &le; 0.061<br/>gini = 0.187<br/>samples = 32<br/>value = [5, 43]<br/>class = Class 1>, fillcolor="#50a8e8"] ;
155 -> 156 ;
157 [label=<EBITDA Margin &le; -0.344<br/>gini = 0.156<br/>samples = 31<br/>value = [4, 43]<br/>class = Class 1>, fillcolor="#4ba6e7"] ;
156 -> 157 ;
158 [label=<gini = 0.0<br/>samples = 1<br/>value = [2, 0]<br/>class = Class 0>, fillcolor="#e58139"] ;
157 -> 158 ;
159 [label=<Gross Margin &le; 1.057<br/>gini = 0.085<br/>samples = 30<br/>value = [2, 43]<br/>class = Class 1>, fillcolor="#42a2e6"] ;
157 -> 159 ;
160 [label=<Return On Tangible Equity &le; -0.028<br/>gini = 0.048<br/>samples = 26<br/>value = [1, 40]<br/>class = Class 1>, fillcolor="#3e9fe6"] ;
159 -> 160 ;
161 [label=<gini = 0.0<br/>samples = 18<br/>value = [0, 29]<br/>class = Class 1>, fillcolor="#399de5"] ;
160 -> 161 ;
162 [label=<Asset Turnover &le; -0.772<br/>gini = 0.153<br/>samples = 8<br/>value = [1, 11]<br/>class = Class 1>, fillcolor="#4ba6e7"] ;
160 -> 162 ;
163 [label=<gini = 0.0<br/>samples = 7<br/>value = [0, 11]<br/>class = Class 1>, fillcolor="#399de5"] ;
162 -> 163 ;
164 [label=<gini = 0.0<br/>samples = 1<br/>value = [1, 0]<br/>class = Class 0>, fillcolor="#e58139"] ;
162 -> 164 ;
165 [label=<Free Cash Flow Per Share &le; 0.111<br/>gini = 0.375<br/>samples = 4<br/>value = [1, 3]<br/>class = Class 1>, fillcolor="#7bbeee"] ;
159 -> 165 ;
166 [label=<gini = 0.0<br/>samples = 1<br/>value = [0, 1]<br/>class = Class 1>, fillcolor="#399de5"] ;
165 -> 166 ;
167 [label=<gini = 0.444<br/>samples = 3<br/>value = [1, 2]<br/>class = Class 1>, fillcolor="#9ccef2"] ;
165 -> 167 ;
168 [label=<gini = 0.0<br/>samples = 1<br/>value = [1, 0]<br/>class = Class 0>, fillcolor="#e58139"] ;
156 -> 168 ;
169 [label=<Net Profit Margin &le; -0.18<br/>gini = 0.124<br/>samples = 11<br/>value = [14, 1]<br/>class = Class 0>, fillcolor="#e78a47"] ;
155 -> 169 ;
170 [label=<gini = 0.444<br/>samples = 2<br/>value = [2, 1]<br/>class = Class 0>, fillcolor="#f2c09c"] ;
169 -> 170 ;
171 [label=<gini = 0.0<br/>samples = 9<br/>value = [12, 0]<br/>class = Class 0>, fillcolor="#e58139"] ;
169 -> 171 ;
172 [label=<EBIT Margin &le; 0.269<br/>gini = 0.271<br/>samples = 42<br/>value = [11, 57]<br/>class = Class 1>, fillcolor="#5fb0ea"] ;
126 -> 172 ;
173 [label=<gini = 0.0<br/>samples = 24<br/>value = [0, 38]<br/>class = Class 1>, fillcolor="#399de5"] ;
172 -> 173 ;
174 [label=<Pre-Tax Profit Margin &le; 0.211<br/>gini = 0.464<br/>samples = 18<br/>value = [11, 19]<br/>class = Class 1>, fillcolor="#acd6f4"] ;
172 -> 174 ;
175 [label=<gini = 0.0<br/>samples = 4<br/>value = [11, 0]<br/>class = Class 0>, fillcolor="#e58139"] ;
174 -> 175 ;
176 [label=<gini = 0.0<br/>samples = 14<br/>value = [0, 19]<br/>class = Class 1>, fillcolor="#399de5"] ;
174 -> 176 ;
177 [label=<Pre-Tax Profit Margin &le; 0.189<br/>gini = 0.104<br/>samples = 706<br/>value = [1060, 62]<br/>class = Class 0>, fillcolor="#e78845"] ;
1 -> 177 ;
178 [label=<Current Ratio &le; -0.466<br/>gini = 0.09<br/>samples = 694<br/>value = [1053, 52]<br/>class = Class 0>, fillcolor="#e68743"] ;
177 -> 178 ;
179 [label=<Current Ratio &le; -0.51<br/>gini = 0.247<br/>samples = 156<br/>value = [202, 34]<br/>class = Class 0>, fillcolor="#e9965a"] ;
178 -> 179 ;
180 [label=<Debt/Equity Ratio &le; -13.089<br/>gini = 0.109<br/>samples = 125<br/>value = [180, 11]<br/>class = Class 0>, fillcolor="#e78945"] ;
179 -> 180 ;
181 [label=<gini = 0.0<br/>samples = 2<br/>value = [0, 2]<br/>class = Class 1>, fillcolor="#399de5"] ;
180 -> 181 ;
182 [label=<Net Profit Margin &le; 0.098<br/>gini = 0.091<br/>samples = 123<br/>value = [180, 9]<br/>class = Class 0>, fillcolor="#e68743"] ;
180 -> 182 ;
183 [label=<Return On Tangible Equity &le; -0.037<br/>gini = 0.081<br/>samples = 122<br/>value = [180, 8]<br/>class = Class 0>, fillcolor="#e68742"] ;
182 -> 183 ;
184 [label=<gini = 0.0<br/>samples = 69<br/>value = [109, 0]<br/>class = Class 0>, fillcolor="#e58139"] ;
183 -> 184 ;
185 [label=<EBITDA Margin &le; 0.461<br/>gini = 0.182<br/>samples = 53<br/>value = [71, 8]<br/>class = Class 0>, fillcolor="#e88f4f"] ;
183 -> 185 ;
186 [label=<gini = 0.0<br/>samples = 25<br/>value = [36, 0]<br/>class = Class 0>, fillcolor="#e58139"] ;
185 -> 186 ;
187 [label=<EBIT Margin &le; 0.155<br/>gini = 0.303<br/>samples = 28<br/>value = [35, 8]<br/>class = Class 0>, fillcolor="#eb9e66"] ;
185 -> 187 ;
188 [label=<Current Ratio &le; -0.517<br/>gini = 0.383<br/>samples = 19<br/>value = [23, 8]<br/>class = Class 0>, fillcolor="#eead7e"] ;
187 -> 188 ;
189 [label=<Pre-Tax Profit Margin &le; -0.24<br/>gini = 0.328<br/>samples = 18<br/>value = [23, 6]<br/>class = Class 0>, fillcolor="#eca26d"] ;
188 -> 189 ;
190 [label=<gini = 0.5<br/>samples = 3<br/>value = [3, 3]<br/>class = Class 0>, fillcolor="#ffffff"] ;
189 -> 190 ;
191 [label=<Current Ratio &le; -0.804<br/>gini = 0.227<br/>samples = 15<br/>value = [20, 3]<br/>class = Class 0>, fillcolor="#e99457"] ;
189 -> 191 ;
192 [label=<EBIT Margin &le; 0.036<br/>gini = 0.245<br/>samples = 13<br/>value = [18, 3]<br/>class = Class 0>, fillcolor="#e9965a"] ;
191 -> 192 ;
193 [label=<gini = 0.198<br/>samples = 6<br/>value = [8, 1]<br/>class = Class 0>, fillcolor="#e89152"] ;
192 -> 193 ;
194 [label=<gini = 0.278<br/>samples = 7<br/>value = [10, 2]<br/>class = Class 0>, fillcolor="#ea9a61"] ;
192 -> 194 ;
195 [label=<gini = 0.0<br/>samples = 2<br/>value = [2, 0]<br/>class = Class 0>, fillcolor="#e58139"] ;
191 -> 195 ;
196 [label=<gini = 0.0<br/>samples = 1<br/>value = [0, 2]<br/>class = Class 1>, fillcolor="#399de5"] ;
188 -> 196 ;
197 [label=<gini = 0.0<br/>samples = 9<br/>value = [12, 0]<br/>class = Class 0>, fillcolor="#e58139"] ;
187 -> 197 ;
198 [label=<gini = 0.0<br/>samples = 1<br/>value = [0, 1]<br/>class = Class 1>, fillcolor="#399de5"] ;
182 -> 198 ;
199 [label=<Current Ratio &le; -0.476<br/>gini = 0.5<br/>samples = 31<br/>value = [22, 23]<br/>class = Class 1>, fillcolor="#f6fbfe"] ;
179 -> 199 ;
200 [label=<EBITDA Margin &le; 0.516<br/>gini = 0.346<br/>samples = 16<br/>value = [6, 21]<br/>class = Class 1>, fillcolor="#72b9ec"] ;
199 -> 200 ;
201 [label=<Debt/Equity Ratio &le; 0.065<br/>gini = 0.269<br/>samples = 14<br/>value = [4, 21]<br/>class = Class 1>, fillcolor="#5fb0ea"] ;
200 -> 201 ;
202 [label=<gini = 0.0<br/>samples = 6<br/>value = [0, 11]<br/>class = Class 1>, fillcolor="#399de5"] ;
201 -> 202 ;
203 [label=<ROI - Return On Investment &le; -0.248<br/>gini = 0.408<br/>samples = 8<br/>value = [4, 10]<br/>class = Class 1>, fillcolor="#88c4ef"] ;
201 -> 203 ;
204 [label=<Current Ratio &le; -0.49<br/>gini = 0.278<br/>samples = 3<br/>value = [1, 5]<br/>class = Class 1>, fillcolor="#61b1ea"] ;
203 -> 204 ;
205 [label=<gini = 0.32<br/>samples = 2<br/>value = [1, 4]<br/>class = Class 1>, fillcolor="#6ab6ec"] ;
204 -> 205 ;
206 [label=<gini = 0.0<br/>samples = 1<br/>value = [0, 1]<br/>class = Class 1>, fillcolor="#399de5"] ;
204 -> 206 ;
207 [label=<ROA - Return On Assets &le; -0.298<br/>gini = 0.469<br/>samples = 5<br/>value = [3, 5]<br/>class = Class 1>, fillcolor="#b0d8f5"] ;
203 -> 207 ;
208 [label=<gini = 0.0<br/>samples = 1<br/>value = [1, 0]<br/>class = Class 0>, fillcolor="#e58139"] ;
207 -> 208 ;
209 [label=<gini = 0.408<br/>samples = 4<br/>value = [2, 5]<br/>class = Class 1>, fillcolor="#88c4ef"] ;
207 -> 209 ;
210 [label=<gini = 0.0<br/>samples = 2<br/>value = [2, 0]<br/>class = Class 0>, fillcolor="#e58139"] ;
200 -> 210 ;
211 [label=<EBITDA Margin &le; -1.127<br/>gini = 0.198<br/>samples = 15<br/>value = [16, 2]<br/>class = Class 0>, fillcolor="#e89152"] ;
199 -> 211 ;
212 [label=<gini = 0.278<br/>samples = 9<br/>value = [10, 2]<br/>class = Class 0>, fillcolor="#ea9a61"] ;
211 -> 212 ;
213 [label=<gini = 0.0<br/>samples = 6<br/>value = [6, 0]<br/>class = Class 0>, fillcolor="#e58139"] ;
211 -> 213 ;
214 [label=<Debt/Equity Ratio &le; -0.392<br/>gini = 0.041<br/>samples = 538<br/>value = [851, 18]<br/>class = Class 0>, fillcolor="#e6843d"] ;
178 -> 214 ;
215 [label=<Current Ratio &le; 0.103<br/>gini = 0.302<br/>samples = 20<br/>value = [22, 5]<br/>class = Class 0>, fillcolor="#eb9e66"] ;
214 -> 215 ;
216 [label=<Debt/Equity Ratio &le; -0.466<br/>gini = 0.153<br/>samples = 19<br/>value = [22, 2]<br/>class = Class 0>, fillcolor="#e78c4b"] ;
215 -> 216 ;
217 [label=<gini = 0.0<br/>samples = 18<br/>value = [22, 0]<br/>class = Class 0>, fillcolor="#e58139"] ;
216 -> 217 ;
218 [label=<gini = 0.0<br/>samples = 1<br/>value = [0, 2]<br/>class = Class 1>, fillcolor="#399de5"] ;
216 -> 218 ;
219 [label=<gini = 0.0<br/>samples = 1<br/>value = [0, 3]<br/>class = Class 1>, fillcolor="#399de5"] ;
215 -> 219 ;
220 [label=<Asset Turnover &le; -1.024<br/>gini = 0.03<br/>samples = 518<br/>value = [829, 13]<br/>class = Class 0>, fillcolor="#e5833c"] ;
214 -> 220 ;
221 [label=<Long-term Debt / Capital &le; 0.071<br/>gini = 0.444<br/>samples = 2<br/>value = [1, 2]<br/>class = Class 1>, fillcolor="#9ccef2"] ;
220 -> 221 ;
222 [label=<gini = 0.0<br/>samples = 1<br/>value = [1, 0]<br/>class = Class 0>, fillcolor="#e58139"] ;
221 -> 222 ;
223 [label=<gini = 0.0<br/>samples = 1<br/>value = [0, 2]<br/>class = Class 1>, fillcolor="#399de5"] ;
221 -> 223 ;
224 [label=<Pre-Tax Profit Margin &le; -0.125<br/>gini = 0.026<br/>samples = 516<br/>value = [828, 11]<br/>class = Class 0>, fillcolor="#e5833c"] ;
220 -> 224 ;
225 [label=<ROI - Return On Investment &le; -0.021<br/>gini = 0.016<br/>samples = 448<br/>value = [718, 6]<br/>class = Class 0>, fillcolor="#e5823b"] ;
224 -> 225 ;
226 [label=<ROI - Return On Investment &le; -0.643<br/>gini = 0.014<br/>samples = 446<br/>value = [716, 5]<br/>class = Class 0>, fillcolor="#e5823a"] ;
225 -> 226 ;
227 [label=<ROI - Return On Investment &le; -0.715<br/>gini = 0.065<br/>samples = 73<br/>value = [115, 4]<br/>class = Class 0>, fillcolor="#e68540"] ;
226 -> 227 ;
228 [label=<Long-term Debt / Capital &le; 0.036<br/>gini = 0.034<br/>samples = 71<br/>value = [114, 2]<br/>class = Class 0>, fillcolor="#e5833c"] ;
227 -> 228 ;
229 [label=<EBITDA Margin &le; -6.742<br/>gini = 0.278<br/>samples = 3<br/>value = [5, 1]<br/>class = Class 0>, fillcolor="#ea9a61"] ;
228 -> 229 ;
230 [label=<gini = 0.0<br/>samples = 1<br/>value = [2, 0]<br/>class = Class 0>, fillcolor="#e58139"] ;
229 -> 230 ;
231 [label=<gini = 0.375<br/>samples = 2<br/>value = [3, 1]<br/>class = Class 0>, fillcolor="#eeab7b"] ;
229 -> 231 ;
232 [label=<Operating Cash Flow Per Share &le; -0.004<br/>gini = 0.018<br/>samples = 68<br/>value = [109, 1]<br/>class = Class 0>, fillcolor="#e5823b"] ;
228 -> 232 ;
233 [label=<gini = 0.0<br/>samples = 49<br/>value = [73, 0]<br/>class = Class 0>, fillcolor="#e58139"] ;
232 -> 233 ;
234 [label=<ROE - Return On Equity &le; -0.428<br/>gini = 0.053<br/>samples = 19<br/>value = [36, 1]<br/>class = Class 0>, fillcolor="#e6843e"] ;
232 -> 234 ;
235 [label=<gini = 0.0<br/>samples = 11<br/>value = [17, 0]<br/>class = Class 0>, fillcolor="#e58139"] ;
234 -> 235 ;
236 [label=<Free Cash Flow Per Share &le; 0.065<br/>gini = 0.095<br/>samples = 8<br/>value = [19, 1]<br/>class = Class 0>, fillcolor="#e68843"] ;
234 -> 236 ;
237 [label=<gini = 0.219<br/>samples = 4<br/>value = [7, 1]<br/>class = Class 0>, fillcolor="#e99355"] ;
236 -> 237 ;
238 [label=<gini = 0.0<br/>samples = 4<br/>value = [12, 0]<br/>class = Class 0>, fillcolor="#e58139"] ;
236 -> 238 ;
239 [label=<gini = 0.444<br/>samples = 2<br/>value = [1, 2]<br/>class = Class 1>, fillcolor="#9ccef2"] ;
227 -> 239 ;
240 [label=<Gross Margin &le; 1.045<br/>gini = 0.003<br/>samples = 373<br/>value = [601, 1]<br/>class = Class 0>, fillcolor="#e58139"] ;
226 -> 240 ;
241 [label=<gini = 0.0<br/>samples = 358<br/>value = [574, 0]<br/>class = Class 0>, fillcolor="#e58139"] ;
240 -> 241 ;
242 [label=<Free Cash Flow Per Share &le; -0.338<br/>gini = 0.069<br/>samples = 15<br/>value = [27, 1]<br/>class = Class 0>, fillcolor="#e68640"] ;
240 -> 242 ;
243 [label=<gini = 0.0<br/>samples = 1<br/>value = [0, 1]<br/>class = Class 1>, fillcolor="#399de5"] ;
242 -> 243 ;
244 [label=<gini = 0.0<br/>samples = 14<br/>value = [27, 0]<br/>class = Class 0>, fillcolor="#e58139"] ;
242 -> 244 ;
245 [label=<Current Ratio &le; -0.166<br/>gini = 0.444<br/>samples = 2<br/>value = [2, 1]<br/>class = Class 0>, fillcolor="#f2c09c"] ;
225 -> 245 ;
246 [label=<gini = 0.0<br/>samples = 1<br/>value = [2, 0]<br/>class = Class 0>, fillcolor="#e58139"] ;
245 -> 246 ;
247 [label=<gini = 0.0<br/>samples = 1<br/>value = [0, 1]<br/>class = Class 1>, fillcolor="#399de5"] ;
245 -> 247 ;
248 [label=<Operating Margin &le; -0.18<br/>gini = 0.083<br/>samples = 68<br/>value = [110, 5]<br/>class = Class 0>, fillcolor="#e68742"] ;
224 -> 248 ;
249 [label=<gini = 0.0<br/>samples = 1<br/>value = [0, 3]<br/>class = Class 1>, fillcolor="#399de5"] ;
248 -> 249 ;
250 [label=<Operating Margin &le; -0.104<br/>gini = 0.035<br/>samples = 67<br/>value = [110, 2]<br/>class = Class 0>, fillcolor="#e5833d"] ;
248 -> 250 ;
251 [label=<Net Profit Margin &le; -0.098<br/>gini = 0.375<br/>samples = 4<br/>value = [6, 2]<br/>class = Class 0>, fillcolor="#eeab7b"] ;
250 -> 251 ;
252 [label=<gini = 0.0<br/>samples = 3<br/>value = [6, 0]<br/>class = Class 0>, fillcolor="#e58139"] ;
251 -> 252 ;
253 [label=<gini = 0.0<br/>samples = 1<br/>value = [0, 2]<br/>class = Class 1>, fillcolor="#399de5"] ;
251 -> 253 ;
254 [label=<gini = 0.0<br/>samples = 63<br/>value = [104, 0]<br/>class = Class 0>, fillcolor="#e58139"] ;
250 -> 254 ;
255 [label=<ROE - Return On Equity &le; -0.031<br/>gini = 0.484<br/>samples = 12<br/>value = [7, 10]<br/>class = Class 1>, fillcolor="#c4e2f7"] ;
177 -> 255 ;
256 [label=<ROE - Return On Equity &le; -0.051<br/>gini = 0.375<br/>samples = 6<br/>value = [6, 2]<br/>class = Class 0>, fillcolor="#eeab7b"] ;
255 -> 256 ;
257 [label=<gini = 0.0<br/>samples = 2<br/>value = [0, 2]<br/>class = Class 1>, fillcolor="#399de5"] ;
256 -> 257 ;
258 [label=<gini = 0.0<br/>samples = 4<br/>value = [6, 0]<br/>class = Class 0>, fillcolor="#e58139"] ;
256 -> 258 ;
259 [label=<Debt/Equity Ratio &le; 0.047<br/>gini = 0.198<br/>samples = 6<br/>value = [1, 8]<br/>class = Class 1>, fillcolor="#52a9e8"] ;
255 -> 259 ;
260 [label=<gini = 0.0<br/>samples = 4<br/>value = [0, 7]<br/>class = Class 1>, fillcolor="#399de5"] ;
259 -> 260 ;
261 [label=<gini = 0.5<br/>samples = 2<br/>value = [1, 1]<br/>class = Class 0>, fillcolor="#ffffff"] ;
259 -> 261 ;
262 [label=<Net Profit Margin &le; 0.065<br/>gini = 0.473<br/>samples = 3478<br/>value = [2112, 3387]<br/>class = Class 1>, fillcolor="#b4daf5"] ;
0 -> 262 [labeldistance=2.5, labelangle=-45, headlabel="False"] ;
263 [label=<Debt/Equity Ratio &le; 0.019<br/>gini = 0.49<br/>samples = 1211<br/>value = [1072, 811]<br/>class = Class 0>, fillcolor="#f9e0cf"] ;
262 -> 263 ;
264 [label=<Operating Margin &le; -0.243<br/>gini = 0.499<br/>samples = 745<br/>value = [537, 588]<br/>class = Class 1>, fillcolor="#eef6fd"] ;
263 -> 264 ;
265 [label=<Current Ratio &le; 0.19<br/>gini = 0.233<br/>samples = 88<br/>value = [18, 116]<br/>class = Class 1>, fillcolor="#58ace9"] ;
264 -> 265 ;
266 [label=<ROI - Return On Investment &le; 0.081<br/>gini = 0.204<br/>samples = 84<br/>value = [15, 115]<br/>class = Class 1>, fillcolor="#53aae8"] ;
265 -> 266 ;
267 [label=<EBITDA Margin &le; -0.626<br/>gini = 0.415<br/>samples = 19<br/>value = [10, 24]<br/>class = Class 1>, fillcolor="#8bc6f0"] ;
266 -> 267 ;
268 [label=<gini = 0.0<br/>samples = 1<br/>value = [3, 0]<br/>class = Class 0>, fillcolor="#e58139"] ;
267 -> 268 ;
269 [label=<Free Cash Flow Per Share &le; 0.321<br/>gini = 0.35<br/>samples = 18<br/>value = [7, 24]<br/>class = Class 1>, fillcolor="#73baed"] ;
267 -> 269 ;
270 [label=<Operating Margin &le; -0.276<br/>gini = 0.497<br/>samples = 9<br/>value = [7, 6]<br/>class = Class 0>, fillcolor="#fbede3"] ;
269 -> 270 ;
271 [label=<Operating Cash Flow Per Share &le; -0.14<br/>gini = 0.408<br/>samples = 4<br/>value = [2, 5]<br/>class = Class 1>, fillcolor="#88c4ef"] ;
270 -> 271 ;
272 [label=<gini = 0.0<br/>samples = 2<br/>value = [0, 3]<br/>class = Class 1>, fillcolor="#399de5"] ;
271 -> 272 ;
273 [label=<gini = 0.5<br/>samples = 2<br/>value = [2, 2]<br/>class = Class 0>, fillcolor="#ffffff"] ;
271 -> 273 ;
274 [label=<EBIT Margin &le; -0.258<br/>gini = 0.278<br/>samples = 5<br/>value = [5, 1]<br/>class = Class 0>, fillcolor="#ea9a61"] ;
270 -> 274 ;
275 [label=<gini = 0.0<br/>samples = 4<br/>value = [5, 0]<br/>class = Class 0>, fillcolor="#e58139"] ;
274 -> 275 ;
276 [label=<gini = 0.0<br/>samples = 1<br/>value = [0, 1]<br/>class = Class 1>, fillcolor="#399de5"] ;
274 -> 276 ;
277 [label=<gini = 0.0<br/>samples = 9<br/>value = [0, 18]<br/>class = Class 1>, fillcolor="#399de5"] ;
269 -> 277 ;
278 [label=<Asset Turnover &le; 1.044<br/>gini = 0.099<br/>samples = 65<br/>value = [5, 91]<br/>class = Class 1>, fillcolor="#44a2e6"] ;
266 -> 278 ;
279 [label=<gini = 0.0<br/>samples = 2<br/>value = [2, 0]<br/>class = Class 0>, fillcolor="#e58139"] ;
278 -> 279 ;
280 [label=<Long-term Debt / Capital &le; -0.05<br/>gini = 0.062<br/>samples = 63<br/>value = [3, 91]<br/>class = Class 1>, fillcolor="#40a0e6"] ;
278 -> 280 ;
281 [label=<gini = 0.0<br/>samples = 43<br/>value = [0, 65]<br/>class = Class 1>, fillcolor="#399de5"] ;
280 -> 281 ;
282 [label=<Pre-Tax Profit Margin &le; -0.13<br/>gini = 0.185<br/>samples = 20<br/>value = [3, 26]<br/>class = Class 1>, fillcolor="#50a8e8"] ;
280 -> 282 ;
283 [label=<gini = 0.0<br/>samples = 18<br/>value = [0, 26]<br/>class = Class 1>, fillcolor="#399de5"] ;
282 -> 283 ;
284 [label=<gini = 0.0<br/>samples = 2<br/>value = [3, 0]<br/>class = Class 0>, fillcolor="#e58139"] ;
282 -> 284 ;
285 [label=<Operating Margin &le; -1.561<br/>gini = 0.375<br/>samples = 4<br/>value = [3, 1]<br/>class = Class 0>, fillcolor="#eeab7b"] ;
265 -> 285 ;
286 [label=<gini = 0.5<br/>samples = 2<br/>value = [1, 1]<br/>class = Class 0>, fillcolor="#ffffff"] ;
285 -> 286 ;
287 [label=<gini = 0.0<br/>samples = 2<br/>value = [2, 0]<br/>class = Class 0>, fillcolor="#e58139"] ;
285 -> 287 ;
288 [label=<Debt/Equity Ratio &le; -0.009<br/>gini = 0.499<br/>samples = 657<br/>value = [519, 472]<br/>class = Class 0>, fillcolor="#fdf4ed"] ;
264 -> 288 ;
289 [label=<Current Ratio &le; -0.376<br/>gini = 0.235<br/>samples = 78<br/>value = [108, 17]<br/>class = Class 0>, fillcolor="#e99558"] ;
288 -> 289 ;
290 [label=<Net Profit Margin &le; -0.084<br/>gini = 0.486<br/>samples = 17<br/>value = [10, 14]<br/>class = Class 1>, fillcolor="#c6e3f8"] ;
289 -> 290 ;
291 [label=<Long-term Debt / Capital &le; 0.263<br/>gini = 0.245<br/>samples = 6<br/>value = [6, 1]<br/>class = Class 0>, fillcolor="#e9965a"] ;
290 -> 291 ;
292 [label=<gini = 0.0<br/>samples = 5<br/>value = [6, 0]<br/>class = Class 0>, fillcolor="#e58139"] ;
291 -> 292 ;
293 [label=<gini = 0.0<br/>samples = 1<br/>value = [0, 1]<br/>class = Class 1>, fillcolor="#399de5"] ;
291 -> 293 ;
294 [label=<Gross Margin &le; -0.262<br/>gini = 0.36<br/>samples = 11<br/>value = [4, 13]<br/>class = Class 1>, fillcolor="#76bbed"] ;
290 -> 294 ;
295 [label=<EBIT Margin &le; -0.136<br/>gini = 0.444<br/>samples = 5<br/>value = [4, 2]<br/>class = Class 0>, fillcolor="#f2c09c"] ;
294 -> 295 ;
296 [label=<Debt/Equity Ratio &le; -0.102<br/>gini = 0.444<br/>samples = 3<br/>value = [1, 2]<br/>class = Class 1>, fillcolor="#9ccef2"] ;
295 -> 296 ;
297 [label=<gini = 0.5<br/>samples = 2<br/>value = [1, 1]<br/>class = Class 0>, fillcolor="#ffffff"] ;
296 -> 297 ;
298 [label=<gini = 0.0<br/>samples = 1<br/>value = [0, 1]<br/>class = Class 1>, fillcolor="#399de5"] ;
296 -> 298 ;
299 [label=<gini = 0.0<br/>samples = 2<br/>value = [3, 0]<br/>class = Class 0>, fillcolor="#e58139"] ;
295 -> 299 ;
300 [label=<gini = 0.0<br/>samples = 6<br/>value = [0, 11]<br/>class = Class 1>, fillcolor="#399de5"] ;
294 -> 300 ;
301 [label=<Free Cash Flow Per Share &le; 0.265<br/>gini = 0.058<br/>samples = 61<br/>value = [98, 3]<br/>class = Class 0>, fillcolor="#e6853f"] ;
289 -> 301 ;
302 [label=<EBIT Margin &le; 0.25<br/>gini = 0.039<br/>samples = 60<br/>value = [98, 2]<br/>class = Class 0>, fillcolor="#e6843d"] ;
301 -> 302 ;
303 [label=<gini = 0.0<br/>samples = 58<br/>value = [96, 0]<br/>class = Class 0>, fillcolor="#e58139"] ;
302 -> 303 ;
304 [label=<Net Profit Margin &le; -0.084<br/>gini = 0.5<br/>samples = 2<br/>value = [2, 2]<br/>class = Class 0>, fillcolor="#ffffff"] ;
302 -> 304 ;
305 [label=<gini = 0.0<br/>samples = 1<br/>value = [2, 0]<br/>class = Class 0>, fillcolor="#e58139"] ;
304 -> 305 ;
306 [label=<gini = 0.0<br/>samples = 1<br/>value = [0, 2]<br/>class = Class 1>, fillcolor="#399de5"] ;
304 -> 306 ;
307 [label=<gini = 0.0<br/>samples = 1<br/>value = [0, 1]<br/>class = Class 1>, fillcolor="#399de5"] ;
301 -> 307 ;
308 [label=<Asset Turnover &le; 0.363<br/>gini = 0.499<br/>samples = 579<br/>value = [411, 455]<br/>class = Class 1>, fillcolor="#ecf6fc"] ;
288 -> 308 ;
309 [label=<ROA - Return On Assets &le; -0.145<br/>gini = 0.488<br/>samples = 309<br/>value = [273, 200]<br/>class = Class 0>, fillcolor="#f8ddca"] ;
308 -> 309 ;
310 [label=<Operating Cash Flow Per Share &le; 0.21<br/>gini = 0.255<br/>samples = 27<br/>value = [6, 34]<br/>class = Class 1>, fillcolor="#5caeea"] ;
309 -> 310 ;
311 [label=<EBIT Margin &le; -0.234<br/>gini = 0.061<br/>samples = 22<br/>value = [1, 31]<br/>class = Class 1>, fillcolor="#3fa0e6"] ;
310 -> 311 ;
312 [label=<gini = 0.0<br/>samples = 1<br/>value = [1, 0]<br/>class = Class 0>, fillcolor="#e58139"] ;
311 -> 312 ;
313 [label=<gini = 0.0<br/>samples = 21<br/>value = [0, 31]<br/>class = Class 1>, fillcolor="#399de5"] ;
311 -> 313 ;
314 [label=<gini = 0.469<br/>samples = 5<br/>value = [5, 3]<br/>class = Class 0>, fillcolor="#f5cdb0"] ;
310 -> 314 ;
315 [label=<Current Ratio &le; -0.291<br/>gini = 0.473<br/>samples = 282<br/>value = [267, 166]<br/>class = Class 0>, fillcolor="#f5cfb4"] ;
309 -> 315 ;
316 [label=<EBIT Margin &le; -0.024<br/>gini = 0.428<br/>samples = 43<br/>value = [22, 49]<br/>class = Class 1>, fillcolor="#92c9f1"] ;
315 -> 316 ;
317 [label=<Gross Margin &le; -0.87<br/>gini = 0.069<br/>samples = 19<br/>value = [1, 27]<br/>class = Class 1>, fillcolor="#40a1e6"] ;
316 -> 317 ;
318 [label=<gini = 0.0<br/>samples = 1<br/>value = [1, 0]<br/>class = Class 0>, fillcolor="#e58139"] ;
317 -> 318 ;
319 [label=<gini = 0.0<br/>samples = 18<br/>value = [0, 27]<br/>class = Class 1>, fillcolor="#399de5"] ;
317 -> 319 ;
320 [label=<Operating Margin &le; 0.384<br/>gini = 0.5<br/>samples = 24<br/>value = [21, 22]<br/>class = Class 1>, fillcolor="#f6fbfe"] ;
316 -> 320 ;
321 [label=<Gross Margin &le; -0.354<br/>gini = 0.463<br/>samples = 19<br/>value = [21, 12]<br/>class = Class 0>, fillcolor="#f4c9aa"] ;
320 -> 321 ;
322 [label=<gini = 0.0<br/>samples = 2<br/>value = [0, 3]<br/>class = Class 1>, fillcolor="#399de5"] ;
321 -> 322 ;
323 [label=<Pre-Tax Profit Margin &le; 0.291<br/>gini = 0.42<br/>samples = 17<br/>value = [21, 9]<br/>class = Class 0>, fillcolor="#f0b78e"] ;
321 -> 323 ;
324 [label=<Net Profit Margin &le; 0.009<br/>gini = 0.346<br/>samples = 14<br/>value = [21, 6]<br/>class = Class 0>, fillcolor="#eca572"] ;
323 -> 324 ;
325 [label=<gini = 0.0<br/>samples = 4<br/>value = [9, 0]<br/>class = Class 0>, fillcolor="#e58139"] ;
324 -> 325 ;
326 [label=<Operating Cash Flow Per Share &le; -0.124<br/>gini = 0.444<br/>samples = 10<br/>value = [12, 6]<br/>class = Class 0>, fillcolor="#f2c09c"] ;
324 -> 326 ;
327 [label=<Free Cash Flow Per Share &le; -0.07<br/>gini = 0.415<br/>samples = 9<br/>value = [12, 5]<br/>class = Class 0>, fillcolor="#f0b58b"] ;
326 -> 327 ;
328 [label=<gini = 0.375<br/>samples = 2<br/>value = [3, 1]<br/>class = Class 0>, fillcolor="#eeab7b"] ;
327 -> 328 ;
329 [label=<gini = 0.426<br/>samples = 7<br/>value = [9, 4]<br/>class = Class 0>, fillcolor="#f1b991"] ;
327 -> 329 ;
330 [label=<gini = 0.0<br/>samples = 1<br/>value = [0, 1]<br/>class = Class 1>, fillcolor="#399de5"] ;
326 -> 330 ;
331 [label=<gini = 0.0<br/>samples = 3<br/>value = [0, 3]<br/>class = Class 1>, fillcolor="#399de5"] ;
323 -> 331 ;
332 [label=<gini = 0.0<br/>samples = 5<br/>value = [0, 10]<br/>class = Class 1>, fillcolor="#399de5"] ;
320 -> 332 ;
333 [label=<Return On Tangible Equity &le; -0.017<br/>gini = 0.437<br/>samples = 239<br/>value = [245, 117]<br/>class = Class 0>, fillcolor="#f1bd98"] ;
315 -> 333 ;
334 [label=<EBITDA Margin &le; 0.914<br/>gini = 0.312<br/>samples = 120<br/>value = [142, 34]<br/>class = Class 0>, fillcolor="#eb9f68"] ;
333 -> 334 ;
335 [label=<Operating Cash Flow Per Share &le; 2.137<br/>gini = 0.288<br/>samples = 116<br/>value = [142, 30]<br/>class = Class 0>, fillcolor="#ea9c63"] ;
334 -> 335 ;
336 [label=<Debt/Equity Ratio &le; 0.013<br/>gini = 0.24<br/>samples = 110<br/>value = [142, 23]<br/>class = Class 0>, fillcolor="#e99559"] ;
335 -> 336 ;
337 [label=<ROE - Return On Equity &le; -0.043<br/>gini = 0.364<br/>samples = 69<br/>value = [73, 23]<br/>class = Class 0>, fillcolor="#eda977"] ;
336 -> 337 ;
338 [label=<Free Cash Flow Per Share &le; 0.051<br/>gini = 0.198<br/>samples = 31<br/>value = [40, 5]<br/>class = Class 0>, fillcolor="#e89152"] ;
337 -> 338 ;
339 [label=<gini = 0.0<br/>samples = 16<br/>value = [22, 0]<br/>class = Class 0>, fillcolor="#e58139"] ;
338 -> 339 ;
340 [label=<gini = 0.34<br/>samples = 15<br/>value = [18, 5]<br/>class = Class 0>, fillcolor="#eca470"] ;
338 -> 340 ;
341 [label=<Current Ratio &le; -0.042<br/>gini = 0.457<br/>samples = 38<br/>value = [33, 18]<br/>class = Class 0>, fillcolor="#f3c6a5"] ;
337 -> 341 ;
342 [label=<ROA - Return On Assets &le; -0.109<br/>gini = 0.397<br/>samples = 11<br/>value = [3, 8]<br/>class = Class 1>, fillcolor="#83c2ef"] ;
341 -> 342 ;
343 [label=<gini = 0.0<br/>samples = 7<br/>value = [0, 7]<br/>class = Class 1>, fillcolor="#399de5"] ;
342 -> 343 ;
344 [label=<Current Ratio &le; -0.23<br/>gini = 0.375<br/>samples = 4<br/>value = [3, 1]<br/>class = Class 0>, fillcolor="#eeab7b"] ;
342 -> 344 ;
345 [label=<gini = 0.0<br/>samples = 1<br/>value = [0, 1]<br/>class = Class 1>, fillcolor="#399de5"] ;
344 -> 345 ;
346 [label=<gini = 0.0<br/>samples = 3<br/>value = [3, 0]<br/>class = Class 0>, fillcolor="#e58139"] ;
344 -> 346 ;
347 [label=<ROE - Return On Equity &le; -0.036<br/>gini = 0.375<br/>samples = 27<br/>value = [30, 10]<br/>class = Class 0>, fillcolor="#eeab7b"] ;
341 -> 347 ;
348 [label=<Current Ratio &le; 0.549<br/>gini = 0.486<br/>samples = 14<br/>value = [14, 10]<br/>class = Class 0>, fillcolor="#f8dbc6"] ;
347 -> 348 ;
349 [label=<Free Cash Flow Per Share &le; -0.134<br/>gini = 0.463<br/>samples = 12<br/>value = [14, 8]<br/>class = Class 0>, fillcolor="#f4c9aa"] ;
348 -> 349 ;
350 [label=<ROA - Return On Assets &le; -0.077<br/>gini = 0.346<br/>samples = 4<br/>value = [7, 2]<br/>class = Class 0>, fillcolor="#eca572"] ;
349 -> 350 ;
351 [label=<gini = 0.408<br/>samples = 3<br/>value = [5, 2]<br/>class = Class 0>, fillcolor="#efb388"] ;
350 -> 351 ;
352 [label=<gini = 0.0<br/>samples = 1<br/>value = [2, 0]<br/>class = Class 0>, fillcolor="#e58139"] ;
350 -> 352 ;
353 [label=<Pre-Tax Profit Margin &le; 0.021<br/>gini = 0.497<br/>samples = 8<br/>value = [7, 6]<br/>class = Class 0>, fillcolor="#fbede3"] ;
349 -> 353 ;
354 [label=<EBITDA Margin &le; -0.291<br/>gini = 0.463<br/>samples = 7<br/>value = [7, 4]<br/>class = Class 0>, fillcolor="#f4c9aa"] ;
353 -> 354 ;
355 [label=<gini = 0.0<br/>samples = 1<br/>value = [2, 0]<br/>class = Class 0>, fillcolor="#e58139"] ;
354 -> 355 ;
356 [label=<ROI - Return On Investment &le; -0.057<br/>gini = 0.494<br/>samples = 6<br/>value = [5, 4]<br/>class = Class 0>, fillcolor="#fae6d7"] ;
354 -> 356 ;
357 [label=<gini = 0.5<br/>samples = 2<br/>value = [2, 2]<br/>class = Class 0>, fillcolor="#ffffff"] ;
356 -> 357 ;
358 [label=<gini = 0.48<br/>samples = 4<br/>value = [3, 2]<br/>class = Class 0>, fillcolor="#f6d5bd"] ;
356 -> 358 ;
359 [label=<gini = 0.0<br/>samples = 1<br/>value = [0, 2]<br/>class = Class 1>, fillcolor="#399de5"] ;
353 -> 359 ;
360 [label=<gini = 0.0<br/>samples = 2<br/>value = [0, 2]<br/>class = Class 1>, fillcolor="#399de5"] ;
348 -> 360 ;
361 [label=<gini = 0.0<br/>samples = 13<br/>value = [16, 0]<br/>class = Class 0>, fillcolor="#e58139"] ;
347 -> 361 ;
362 [label=<gini = 0.0<br/>samples = 41<br/>value = [69, 0]<br/>class = Class 0>, fillcolor="#e58139"] ;
336 -> 362 ;
363 [label=<gini = 0.0<br/>samples = 6<br/>value = [0, 7]<br/>class = Class 1>, fillcolor="#399de5"] ;
335 -> 363 ;
364 [label=<gini = 0.0<br/>samples = 4<br/>value = [0, 4]<br/>class = Class 1>, fillcolor="#399de5"] ;
334 -> 364 ;
365 [label=<Current Ratio &le; -0.152<br/>gini = 0.494<br/>samples = 119<br/>value = [103, 83]<br/>class = Class 0>, fillcolor="#fae7d9"] ;
333 -> 365 ;
366 [label=<ROA - Return On Assets &le; 0.18<br/>gini = 0.1<br/>samples = 26<br/>value = [36, 2]<br/>class = Class 0>, fillcolor="#e68844"] ;
365 -> 366 ;
367 [label=<ROE - Return On Equity &le; -0.019<br/>gini = 0.057<br/>samples = 24<br/>value = [33, 1]<br/>class = Class 0>, fillcolor="#e6853f"] ;
366 -> 367 ;
368 [label=<EBIT Margin &le; -0.113<br/>gini = 0.124<br/>samples = 10<br/>value = [14, 1]<br/>class = Class 0>, fillcolor="#e78a47"] ;
367 -> 368 ;
369 [label=<gini = 0.0<br/>samples = 2<br/>value = [4, 0]<br/>class = Class 0>, fillcolor="#e58139"] ;
368 -> 369 ;
370 [label=<gini = 0.165<br/>samples = 8<br/>value = [10, 1]<br/>class = Class 0>, fillcolor="#e88e4d"] ;
368 -> 370 ;
371 [label=<gini = 0.0<br/>samples = 14<br/>value = [19, 0]<br/>class = Class 0>, fillcolor="#e58139"] ;
367 -> 371 ;
372 [label=<Return On Tangible Equity &le; 0.016<br/>gini = 0.375<br/>samples = 2<br/>value = [3, 1]<br/>class = Class 0>, fillcolor="#eeab7b"] ;
366 -> 372 ;
373 [label=<gini = 0.0<br/>samples = 1<br/>value = [0, 1]<br/>class = Class 1>, fillcolor="#399de5"] ;
372 -> 373 ;
374 [label=<gini = 0.0<br/>samples = 1<br/>value = [3, 0]<br/>class = Class 0>, fillcolor="#e58139"] ;
372 -> 374 ;
375 [label=<EBIT Margin &le; -0.13<br/>gini = 0.496<br/>samples = 93<br/>value = [67, 81]<br/>class = Class 1>, fillcolor="#ddeefb"] ;
365 -> 375 ;
376 [label=<Long-term Debt / Capital &le; -0.066<br/>gini = 0.18<br/>samples = 13<br/>value = [18, 2]<br/>class = Class 0>, fillcolor="#e88f4f"] ;
375 -> 376 ;
377 [label=<gini = 0.0<br/>samples = 2<br/>value = [0, 2]<br/>class = Class 1>, fillcolor="#399de5"] ;
376 -> 377 ;
378 [label=<gini = 0.0<br/>samples = 11<br/>value = [18, 0]<br/>class = Class 0>, fillcolor="#e58139"] ;
376 -> 378 ;
379 [label=<Return On Tangible Equity &le; 0.038<br/>gini = 0.473<br/>samples = 80<br/>value = [49, 79]<br/>class = Class 1>, fillcolor="#b4daf5"] ;
375 -> 379 ;
380 [label=<Net Profit Margin &le; 0.056<br/>gini = 0.422<br/>samples = 66<br/>value = [33, 76]<br/>class = Class 1>, fillcolor="#8fc8f0"] ;
379 -> 380 ;
381 [label=<EBITDA Margin &le; -0.276<br/>gini = 0.378<br/>samples = 59<br/>value = [25, 74]<br/>class = Class 1>, fillcolor="#7cbeee"] ;
380 -> 381 ;
382 [label=<gini = 0.0<br/>samples = 21<br/>value = [0, 28]<br/>class = Class 1>, fillcolor="#399de5"] ;
381 -> 382 ;
383 [label=<Debt/Equity Ratio &le; -0.002<br/>gini = 0.456<br/>samples = 38<br/>value = [25, 46]<br/>class = Class 1>, fillcolor="#a5d2f3"] ;
381 -> 383 ;
384 [label=<gini = 0.0<br/>samples = 2<br/>value = [4, 0]<br/>class = Class 0>, fillcolor="#e58139"] ;
383 -> 384 ;
385 [label=<Long-term Debt / Capital &le; -0.039<br/>gini = 0.43<br/>samples = 36<br/>value = [21, 46]<br/>class = Class 1>, fillcolor="#93caf1"] ;
383 -> 385 ;
386 [label=<Operating Margin &le; -0.02<br/>gini = 0.229<br/>samples = 20<br/>value = [5, 33]<br/>class = Class 1>, fillcolor="#57ace9"] ;
385 -> 386 ;
387 [label=<Long-term Debt / Capital &le; -0.091<br/>gini = 0.069<br/>samples = 14<br/>value = [1, 27]<br/>class = Class 1>, fillcolor="#40a1e6"] ;
386 -> 387 ;
388 [label=<Pre-Tax Profit Margin &le; 0.02<br/>gini = 0.375<br/>samples = 2<br/>value = [1, 3]<br/>class = Class 1>, fillcolor="#7bbeee"] ;
387 -> 388 ;
389 [label=<gini = 0.0<br/>samples = 1<br/>value = [0, 3]<br/>class = Class 1>, fillcolor="#399de5"] ;
388 -> 389 ;
390 [label=<gini = 0.0<br/>samples = 1<br/>value = [1, 0]<br/>class = Class 0>, fillcolor="#e58139"] ;
388 -> 390 ;
391 [label=<gini = 0.0<br/>samples = 12<br/>value = [0, 24]<br/>class = Class 1>, fillcolor="#399de5"] ;
387 -> 391 ;
392 [label=<Asset Turnover &le; 0.24<br/>gini = 0.48<br/>samples = 6<br/>value = [4, 6]<br/>class = Class 1>, fillcolor="#bddef6"] ;
386 -> 392 ;
393 [label=<Operating Cash Flow Per Share &le; -0.143<br/>gini = 0.375<br/>samples = 5<br/>value = [2, 6]<br/>class = Class 1>, fillcolor="#7bbeee"] ;
392 -> 393 ;
394 [label=<gini = 0.408<br/>samples = 4<br/>value = [2, 5]<br/>class = Class 1>, fillcolor="#88c4ef"] ;
393 -> 394 ;
395 [label=<gini = 0.0<br/>samples = 1<br/>value = [0, 1]<br/>class = Class 1>, fillcolor="#399de5"] ;
393 -> 395 ;
396 [label=<gini = 0.0<br/>samples = 1<br/>value = [2, 0]<br/>class = Class 0>, fillcolor="#e58139"] ;
392 -> 396 ;
397 [label=<ROA - Return On Assets &le; -0.013<br/>gini = 0.495<br/>samples = 16<br/>value = [16, 13]<br/>class = Class 0>, fillcolor="#fae7da"] ;
385 -> 397 ;
398 [label=<Gross Margin &le; -1.072<br/>gini = 0.397<br/>samples = 12<br/>value = [16, 6]<br/>class = Class 0>, fillcolor="#efb083"] ;
397 -> 398 ;
399 [label=<gini = 0.0<br/>samples = 3<br/>value = [6, 0]<br/>class = Class 0>, fillcolor="#e58139"] ;
398 -> 399 ;
400 [label=<Net Profit Margin &le; 0.023<br/>gini = 0.469<br/>samples = 9<br/>value = [10, 6]<br/>class = Class 0>, fillcolor="#f5cdb0"] ;
398 -> 400 ;
401 [label=<EBIT Margin &le; -0.08<br/>gini = 0.444<br/>samples = 8<br/>value = [10, 5]<br/>class = Class 0>, fillcolor="#f2c09c"] ;
400 -> 401 ;
402 [label=<gini = 0.473<br/>samples = 6<br/>value = [8, 5]<br/>class = Class 0>, fillcolor="#f5d0b5"] ;
401 -> 402 ;
403 [label=<gini = 0.0<br/>samples = 2<br/>value = [2, 0]<br/>class = Class 0>, fillcolor="#e58139"] ;
401 -> 403 ;
404 [label=<gini = 0.0<br/>samples = 1<br/>value = [0, 1]<br/>class = Class 1>, fillcolor="#399de5"] ;
400 -> 404 ;
405 [label=<gini = 0.0<br/>samples = 4<br/>value = [0, 7]<br/>class = Class 1>, fillcolor="#399de5"] ;
397 -> 405 ;
406 [label=<ROA - Return On Assets &le; 0.153<br/>gini = 0.32<br/>samples = 7<br/>value = [8, 2]<br/>class = Class 0>, fillcolor="#eca06a"] ;
380 -> 406 ;
407 [label=<Net Profit Margin &le; 0.06<br/>gini = 0.444<br/>samples = 2<br/>value = [1, 2]<br/>class = Class 1>, fillcolor="#9ccef2"] ;
406 -> 407 ;
408 [label=<gini = 0.0<br/>samples = 1<br/>value = [0, 2]<br/>class = Class 1>, fillcolor="#399de5"] ;
407 -> 408 ;
409 [label=<gini = 0.0<br/>samples = 1<br/>value = [1, 0]<br/>class = Class 0>, fillcolor="#e58139"] ;
407 -> 409 ;
410 [label=<gini = 0.0<br/>samples = 5<br/>value = [7, 0]<br/>class = Class 0>, fillcolor="#e58139"] ;
406 -> 410 ;
411 [label=<Return On Tangible Equity &le; 0.138<br/>gini = 0.266<br/>samples = 14<br/>value = [16, 3]<br/>class = Class 0>, fillcolor="#ea995e"] ;
379 -> 411 ;
412 [label=<gini = 0.0<br/>samples = 10<br/>value = [14, 0]<br/>class = Class 0>, fillcolor="#e58139"] ;
411 -> 412 ;
413 [label=<Gross Margin &le; 0.39<br/>gini = 0.48<br/>samples = 4<br/>value = [2, 3]<br/>class = Class 1>, fillcolor="#bddef6"] ;
411 -> 413 ;
414 [label=<gini = 0.0<br/>samples = 2<br/>value = [0, 3]<br/>class = Class 1>, fillcolor="#399de5"] ;
413 -> 414 ;
415 [label=<gini = 0.0<br/>samples = 2<br/>value = [2, 0]<br/>class = Class 0>, fillcolor="#e58139"] ;
413 -> 415 ;
416 [label=<ROE - Return On Equity &le; -0.021<br/>gini = 0.456<br/>samples = 270<br/>value = [138, 255]<br/>class = Class 1>, fillcolor="#a4d2f3"] ;
308 -> 416 ;
417 [label=<Gross Margin &le; -0.185<br/>gini = 0.384<br/>samples = 34<br/>value = [40, 14]<br/>class = Class 0>, fillcolor="#eead7e"] ;
416 -> 417 ;
418 [label=<Pre-Tax Profit Margin &le; -0.077<br/>gini = 0.24<br/>samples = 26<br/>value = [37, 6]<br/>class = Class 0>, fillcolor="#e99559"] ;
417 -> 418 ;
419 [label=<ROE - Return On Equity &le; -0.024<br/>gini = 0.111<br/>samples = 19<br/>value = [32, 2]<br/>class = Class 0>, fillcolor="#e78945"] ;
418 -> 419 ;
420 [label=<gini = 0.0<br/>samples = 16<br/>value = [31, 0]<br/>class = Class 0>, fillcolor="#e58139"] ;
419 -> 420 ;
421 [label=<Pre-Tax Profit Margin &le; -0.107<br/>gini = 0.444<br/>samples = 3<br/>value = [1, 2]<br/>class = Class 1>, fillcolor="#9ccef2"] ;
419 -> 421 ;
422 [label=<gini = 0.0<br/>samples = 1<br/>value = [1, 0]<br/>class = Class 0>, fillcolor="#e58139"] ;
421 -> 422 ;
423 [label=<gini = 0.0<br/>samples = 2<br/>value = [0, 2]<br/>class = Class 1>, fillcolor="#399de5"] ;
421 -> 423 ;
424 [label=<Operating Cash Flow Per Share &le; -0.099<br/>gini = 0.494<br/>samples = 7<br/>value = [5, 4]<br/>class = Class 0>, fillcolor="#fae6d7"] ;
418 -> 424 ;
425 [label=<gini = 0.0<br/>samples = 3<br/>value = [5, 0]<br/>class = Class 0>, fillcolor="#e58139"] ;
424 -> 425 ;
426 [label=<gini = 0.0<br/>samples = 4<br/>value = [0, 4]<br/>class = Class 1>, fillcolor="#399de5"] ;
424 -> 426 ;
427 [label=<Return On Tangible Equity &le; -0.018<br/>gini = 0.397<br/>samples = 8<br/>value = [3, 8]<br/>class = Class 1>, fillcolor="#83c2ef"] ;
417 -> 427 ;
428 [label=<gini = 0.0<br/>samples = 6<br/>value = [0, 8]<br/>class = Class 1>, fillcolor="#399de5"] ;
427 -> 428 ;
429 [label=<gini = 0.0<br/>samples = 2<br/>value = [3, 0]<br/>class = Class 0>, fillcolor="#e58139"] ;
427 -> 429 ;
430 [label=<Gross Margin &le; -1.072<br/>gini = 0.411<br/>samples = 236<br/>value = [98, 241]<br/>class = Class 1>, fillcolor="#8ac5f0"] ;
416 -> 430 ;
431 [label=<Gross Margin &le; -1.423<br/>gini = 0.499<br/>samples = 96<br/>value = [65, 72]<br/>class = Class 1>, fillcolor="#ecf5fc"] ;
430 -> 431 ;
432 [label=<Asset Turnover &le; 1.3<br/>gini = 0.307<br/>samples = 25<br/>value = [7, 30]<br/>class = Class 1>, fillcolor="#67b4eb"] ;
431 -> 432 ;
433 [label=<Debt/Equity Ratio &le; 0.018<br/>gini = 0.278<br/>samples = 5<br/>value = [5, 1]<br/>class = Class 0>, fillcolor="#ea9a61"] ;
432 -> 433 ;
434 [label=<gini = 0.0<br/>samples = 4<br/>value = [5, 0]<br/>class = Class 0>, fillcolor="#e58139"] ;
433 -> 434 ;
435 [label=<gini = 0.0<br/>samples = 1<br/>value = [0, 1]<br/>class = Class 1>, fillcolor="#399de5"] ;
433 -> 435 ;
436 [label=<ROA - Return On Assets &le; 0.224<br/>gini = 0.121<br/>samples = 20<br/>value = [2, 29]<br/>class = Class 1>, fillcolor="#47a4e7"] ;
432 -> 436 ;
437 [label=<Return On Tangible Equity &le; 0.002<br/>gini = 0.48<br/>samples = 4<br/>value = [2, 3]<br/>class = Class 1>, fillcolor="#bddef6"] ;
436 -> 437 ;
438 [label=<gini = 0.0<br/>samples = 3<br/>value = [0, 3]<br/>class = Class 1>, fillcolor="#399de5"] ;
437 -> 438 ;
439 [label=<gini = 0.0<br/>samples = 1<br/>value = [2, 0]<br/>class = Class 0>, fillcolor="#e58139"] ;
437 -> 439 ;
440 [label=<gini = 0.0<br/>samples = 16<br/>value = [0, 26]<br/>class = Class 1>, fillcolor="#399de5"] ;
436 -> 440 ;
441 [label=<Pre-Tax Profit Margin &le; 0.003<br/>gini = 0.487<br/>samples = 71<br/>value = [58, 42]<br/>class = Class 0>, fillcolor="#f8dcc8"] ;
431 -> 441 ;
442 [label=<ROA - Return On Assets &le; 0.034<br/>gini = 0.469<br/>samples = 66<br/>value = [58, 35]<br/>class = Class 0>, fillcolor="#f5cdb0"] ;
441 -> 442 ;
443 [label=<gini = 0.0<br/>samples = 2<br/>value = [0, 3]<br/>class = Class 1>, fillcolor="#399de5"] ;
442 -> 443 ;
444 [label=<Asset Turnover &le; 2.3<br/>gini = 0.458<br/>samples = 64<br/>value = [58, 32]<br/>class = Class 0>, fillcolor="#f3c7a6"] ;
442 -> 444 ;
445 [label=<Operating Margin &le; -0.17<br/>gini = 0.413<br/>samples = 55<br/>value = [56, 23]<br/>class = Class 0>, fillcolor="#f0b58a"] ;
444 -> 445 ;
446 [label=<ROI - Return On Investment &le; 0.091<br/>gini = 0.283<br/>samples = 30<br/>value = [34, 7]<br/>class = Class 0>, fillcolor="#ea9b62"] ;
445 -> 446 ;
447 [label=<gini = 0.0<br/>samples = 2<br/>value = [0, 2]<br/>class = Class 1>, fillcolor="#399de5"] ;
446 -> 447 ;
448 [label=<Operating Margin &le; -0.215<br/>gini = 0.224<br/>samples = 28<br/>value = [34, 5]<br/>class = Class 0>, fillcolor="#e99456"] ;
446 -> 448 ;
449 [label=<gini = 0.0<br/>samples = 11<br/>value = [15, 0]<br/>class = Class 0>, fillcolor="#e58139"] ;
448 -> 449 ;
450 [label=<EBITDA Margin &le; -0.525<br/>gini = 0.33<br/>samples = 17<br/>value = [19, 5]<br/>class = Class 0>, fillcolor="#eca26d"] ;
448 -> 450 ;
451 [label=<gini = 0.0<br/>samples = 3<br/>value = [0, 3]<br/>class = Class 1>, fillcolor="#399de5"] ;
450 -> 451 ;
452 [label=<Free Cash Flow Per Share &le; 0.194<br/>gini = 0.172<br/>samples = 14<br/>value = [19, 2]<br/>class = Class 0>, fillcolor="#e88e4e"] ;
450 -> 452 ;
453 [label=<gini = 0.0<br/>samples = 8<br/>value = [11, 0]<br/>class = Class 0>, fillcolor="#e58139"] ;
452 -> 453 ;
454 [label=<gini = 0.32<br/>samples = 6<br/>value = [8, 2]<br/>class = Class 0>, fillcolor="#eca06a"] ;
452 -> 454 ;
455 [label=<Current Ratio &le; -0.17<br/>gini = 0.488<br/>samples = 25<br/>value = [22, 16]<br/>class = Class 0>, fillcolor="#f8ddc9"] ;
445 -> 455 ;
456 [label=<Operating Margin &le; -0.116<br/>gini = 0.444<br/>samples = 16<br/>value = [7, 14]<br/>class = Class 1>, fillcolor="#9ccef2"] ;
455 -> 456 ;
457 [label=<ROE - Return On Equity &le; 0.012<br/>gini = 0.346<br/>samples = 14<br/>value = [4, 14]<br/>class = Class 1>, fillcolor="#72b9ec"] ;
456 -> 457 ;
458 [label=<ROE - Return On Equity &le; -0.006<br/>gini = 0.142<br/>samples = 9<br/>value = [1, 12]<br/>class = Class 1>, fillcolor="#49a5e7"] ;
457 -> 458 ;
459 [label=<gini = 0.0<br/>samples = 1<br/>value = [1, 0]<br/>class = Class 0>, fillcolor="#e58139"] ;
458 -> 459 ;
460 [label=<gini = 0.0<br/>samples = 8<br/>value = [0, 12]<br/>class = Class 1>, fillcolor="#399de5"] ;
458 -> 460 ;
461 [label=<Current Ratio &le; -0.391<br/>gini = 0.48<br/>samples = 5<br/>value = [3, 2]<br/>class = Class 0>, fillcolor="#f6d5bd"] ;
457 -> 461 ;
462 [label=<gini = 0.0<br/>samples = 1<br/>value = [1, 0]<br/>class = Class 0>, fillcolor="#e58139"] ;
461 -> 462 ;
463 [label=<gini = 0.5<br/>samples = 4<br/>value = [2, 2]<br/>class = Class 0>, fillcolor="#ffffff"] ;
461 -> 463 ;
464 [label=<gini = 0.0<br/>samples = 2<br/>value = [3, 0]<br/>class = Class 0>, fillcolor="#e58139"] ;
456 -> 464 ;
465 [label=<Gross Margin &le; -1.335<br/>gini = 0.208<br/>samples = 9<br/>value = [15, 2]<br/>class = Class 0>, fillcolor="#e89253"] ;
455 -> 465 ;
466 [label=<gini = 0.5<br/>samples = 2<br/>value = [2, 2]<br/>class = Class 0>, fillcolor="#ffffff"] ;
465 -> 466 ;
467 [label=<gini = 0.0<br/>samples = 7<br/>value = [13, 0]<br/>class = Class 0>, fillcolor="#e58139"] ;
465 -> 467 ;
468 [label=<Asset Turnover &le; 3.001<br/>gini = 0.298<br/>samples = 9<br/>value = [2, 9]<br/>class = Class 1>, fillcolor="#65b3eb"] ;
444 -> 468 ;
469 [label=<gini = 0.0<br/>samples = 5<br/>value = [0, 6]<br/>class = Class 1>, fillcolor="#399de5"] ;
468 -> 469 ;
470 [label=<ROE - Return On Equity &le; 0.012<br/>gini = 0.48<br/>samples = 4<br/>value = [2, 3]<br/>class = Class 1>, fillcolor="#bddef6"] ;
468 -> 470 ;
471 [label=<gini = 0.0<br/>samples = 2<br/>value = [2, 0]<br/>class = Class 0>, fillcolor="#e58139"] ;
470 -> 471 ;
472 [label=<gini = 0.0<br/>samples = 2<br/>value = [0, 3]<br/>class = Class 1>, fillcolor="#399de5"] ;
470 -> 472 ;
473 [label=<gini = 0.0<br/>samples = 5<br/>value = [0, 7]<br/>class = Class 1>, fillcolor="#399de5"] ;
441 -> 473 ;
474 [label=<Gross Margin &le; -0.501<br/>gini = 0.273<br/>samples = 140<br/>value = [33, 169]<br/>class = Class 1>, fillcolor="#60b0ea"] ;
430 -> 474 ;
475 [label=<ROA - Return On Assets &le; 0.749<br/>gini = 0.152<br/>samples = 90<br/>value = [11, 122]<br/>class = Class 1>, fillcolor="#4ba6e7"] ;
474 -> 475 ;
476 [label=<Return On Tangible Equity &le; -8.613<br/>gini = 0.129<br/>samples = 87<br/>value = [9, 121]<br/>class = Class 1>, fillcolor="#48a4e7"] ;
475 -> 476 ;
477 [label=<gini = 0.0<br/>samples = 1<br/>value = [1, 0]<br/>class = Class 0>, fillcolor="#e58139"] ;
476 -> 477 ;
478 [label=<Free Cash Flow Per Share &le; -0.287<br/>gini = 0.116<br/>samples = 86<br/>value = [8, 121]<br/>class = Class 1>, fillcolor="#46a3e7"] ;
476 -> 478 ;
479 [label=<ROI - Return On Investment &le; 0.164<br/>gini = 0.48<br/>samples = 5<br/>value = [2, 3]<br/>class = Class 1>, fillcolor="#bddef6"] ;
478 -> 479 ;
480 [label=<gini = 0.0<br/>samples = 3<br/>value = [0, 3]<br/>class = Class 1>, fillcolor="#399de5"] ;
479 -> 480 ;
481 [label=<gini = 0.0<br/>samples = 2<br/>value = [2, 0]<br/>class = Class 0>, fillcolor="#e58139"] ;
479 -> 481 ;
482 [label=<Debt/Equity Ratio &le; 0.009<br/>gini = 0.092<br/>samples = 81<br/>value = [6, 118]<br/>class = Class 1>, fillcolor="#43a2e6"] ;
478 -> 482 ;
483 [label=<Net Profit Margin &le; 0.053<br/>gini = 0.025<br/>samples = 53<br/>value = [1, 78]<br/>class = Class 1>, fillcolor="#3c9ee5"] ;
482 -> 483 ;
484 [label=<gini = 0.0<br/>samples = 45<br/>value = [0, 67]<br/>class = Class 1>, fillcolor="#399de5"] ;
483 -> 484 ;
485 [label=<Net Profit Margin &le; 0.06<br/>gini = 0.153<br/>samples = 8<br/>value = [1, 11]<br/>class = Class 1>, fillcolor="#4ba6e7"] ;
483 -> 485 ;
486 [label=<gini = 0.0<br/>samples = 1<br/>value = [1, 0]<br/>class = Class 0>, fillcolor="#e58139"] ;
485 -> 486 ;
487 [label=<gini = 0.0<br/>samples = 7<br/>value = [0, 11]<br/>class = Class 1>, fillcolor="#399de5"] ;
485 -> 487 ;
488 [label=<Long-term Debt / Capital &le; -0.037<br/>gini = 0.198<br/>samples = 28<br/>value = [5, 40]<br/>class = Class 1>, fillcolor="#52a9e8"] ;
482 -> 488 ;
489 [label=<Current Ratio &le; -0.239<br/>gini = 0.49<br/>samples = 5<br/>value = [4, 3]<br/>class = Class 0>, fillcolor="#f8e0ce"] ;
488 -> 489 ;
490 [label=<gini = 0.0<br/>samples = 3<br/>value = [0, 3]<br/>class = Class 1>, fillcolor="#399de5"] ;
489 -> 490 ;
491 [label=<gini = 0.0<br/>samples = 2<br/>value = [4, 0]<br/>class = Class 0>, fillcolor="#e58139"] ;
489 -> 491 ;
492 [label=<EBITDA Margin &le; -0.378<br/>gini = 0.051<br/>samples = 23<br/>value = [1, 37]<br/>class = Class 1>, fillcolor="#3ea0e6"] ;
488 -> 492 ;
493 [label=<Operating Cash Flow Per Share &le; 0.044<br/>gini = 0.219<br/>samples = 5<br/>value = [1, 7]<br/>class = Class 1>, fillcolor="#55abe9"] ;
492 -> 493 ;
494 [label=<gini = 0.0<br/>samples = 4<br/>value = [0, 7]<br/>class = Class 1>, fillcolor="#399de5"] ;
493 -> 494 ;
495 [label=<gini = 0.0<br/>samples = 1<br/>value = [1, 0]<br/>class = Class 0>, fillcolor="#e58139"] ;
493 -> 495 ;
496 [label=<gini = 0.0<br/>samples = 18<br/>value = [0, 30]<br/>class = Class 1>, fillcolor="#399de5"] ;
492 -> 496 ;
497 [label=<Net Profit Margin &le; 0.01<br/>gini = 0.444<br/>samples = 3<br/>value = [2, 1]<br/>class = Class 0>, fillcolor="#f2c09c"] ;
475 -> 497 ;
498 [label=<gini = 0.0<br/>samples = 1<br/>value = [0, 1]<br/>class = Class 1>, fillcolor="#399de5"] ;
497 -> 498 ;
499 [label=<gini = 0.0<br/>samples = 2<br/>value = [2, 0]<br/>class = Class 0>, fillcolor="#e58139"] ;
497 -> 499 ;
500 [label=<Asset Turnover &le; 1.457<br/>gini = 0.434<br/>samples = 50<br/>value = [22, 47]<br/>class = Class 1>, fillcolor="#96cbf1"] ;
474 -> 500 ;
501 [label=<ROI - Return On Investment &le; 0.098<br/>gini = 0.306<br/>samples = 39<br/>value = [10, 43]<br/>class = Class 1>, fillcolor="#67b4eb"] ;
500 -> 501 ;
502 [label=<gini = 0.0<br/>samples = 2<br/>value = [4, 0]<br/>class = Class 0>, fillcolor="#e58139"] ;
501 -> 502 ;
503 [label=<Gross Margin &le; 1.698<br/>gini = 0.215<br/>samples = 37<br/>value = [6, 43]<br/>class = Class 1>, fillcolor="#55abe9"] ;
501 -> 503 ;
504 [label=<Net Profit Margin &le; 0.028<br/>gini = 0.187<br/>samples = 36<br/>value = [5, 43]<br/>class = Class 1>, fillcolor="#50a8e8"] ;
503 -> 504 ;
505 [label=<Return On Tangible Equity &le; -0.072<br/>gini = 0.093<br/>samples = 30<br/>value = [2, 39]<br/>class = Class 1>, fillcolor="#43a2e6"] ;
504 -> 505 ;
506 [label=<gini = 0.0<br/>samples = 1<br/>value = [1, 0]<br/>class = Class 0>, fillcolor="#e58139"] ;
505 -> 506 ;
507 [label=<Debt/Equity Ratio &le; -0.0<br/>gini = 0.049<br/>samples = 29<br/>value = [1, 39]<br/>class = Class 1>, fillcolor="#3ea0e6"] ;
505 -> 507 ;
508 [label=<Return On Tangible Equity &le; 0.001<br/>gini = 0.245<br/>samples = 6<br/>value = [1, 6]<br/>class = Class 1>, fillcolor="#5aade9"] ;
507 -> 508 ;
509 [label=<gini = 0.0<br/>samples = 5<br/>value = [0, 6]<br/>class = Class 1>, fillcolor="#399de5"] ;
508 -> 509 ;
510 [label=<gini = 0.0<br/>samples = 1<br/>value = [1, 0]<br/>class = Class 0>, fillcolor="#e58139"] ;
508 -> 510 ;
511 [label=<gini = 0.0<br/>samples = 23<br/>value = [0, 33]<br/>class = Class 1>, fillcolor="#399de5"] ;
507 -> 511 ;
512 [label=<EBIT Margin &le; -0.0<br/>gini = 0.49<br/>samples = 6<br/>value = [3, 4]<br/>class = Class 1>, fillcolor="#cee6f8"] ;
504 -> 512 ;
513 [label=<gini = 0.0<br/>samples = 2<br/>value = [2, 0]<br/>class = Class 0>, fillcolor="#e58139"] ;
512 -> 513 ;
514 [label=<Gross Margin &le; 0.065<br/>gini = 0.32<br/>samples = 4<br/>value = [1, 4]<br/>class = Class 1>, fillcolor="#6ab6ec"] ;
512 -> 514 ;
515 [label=<gini = 0.375<br/>samples = 3<br/>value = [1, 3]<br/>class = Class 1>, fillcolor="#7bbeee"] ;
514 -> 515 ;
516 [label=<gini = 0.0<br/>samples = 1<br/>value = [0, 1]<br/>class = Class 1>, fillcolor="#399de5"] ;
514 -> 516 ;
517 [label=<gini = 0.0<br/>samples = 1<br/>value = [1, 0]<br/>class = Class 0>, fillcolor="#e58139"] ;
503 -> 517 ;
518 [label=<Net Profit Margin &le; 0.041<br/>gini = 0.375<br/>samples = 11<br/>value = [12, 4]<br/>class = Class 0>, fillcolor="#eeab7b"] ;
500 -> 518 ;
519 [label=<ROE - Return On Equity &le; 0.053<br/>gini = 0.153<br/>samples = 9<br/>value = [11, 1]<br/>class = Class 0>, fillcolor="#e78c4b"] ;
518 -> 519 ;
520 [label=<gini = 0.0<br/>samples = 8<br/>value = [11, 0]<br/>class = Class 0>, fillcolor="#e58139"] ;
519 -> 520 ;
521 [label=<gini = 0.0<br/>samples = 1<br/>value = [0, 1]<br/>class = Class 1>, fillcolor="#399de5"] ;
519 -> 521 ;
522 [label=<gini = 0.375<br/>samples = 2<br/>value = [1, 3]<br/>class = Class 1>, fillcolor="#7bbeee"] ;
518 -> 522 ;
523 [label=<ROA - Return On Assets &le; 0.271<br/>gini = 0.415<br/>samples = 466<br/>value = [535, 223]<br/>class = Class 0>, fillcolor="#f0b68c"] ;
263 -> 523 ;
524 [label=<Current Ratio &le; -0.461<br/>gini = 0.367<br/>samples = 389<br/>value = [482, 154]<br/>class = Class 0>, fillcolor="#eda978"] ;
523 -> 524 ;
525 [label=<Debt/Equity Ratio &le; 0.094<br/>gini = 0.422<br/>samples = 54<br/>value = [26, 60]<br/>class = Class 1>, fillcolor="#8fc7f0"] ;
524 -> 525 ;
526 [label=<Net Profit Margin &le; 0.026<br/>gini = 0.251<br/>samples = 45<br/>value = [10, 58]<br/>class = Class 1>, fillcolor="#5baee9"] ;
525 -> 526 ;
527 [label=<Long-term Debt / Capital &le; 0.028<br/>gini = 0.357<br/>samples = 28<br/>value = [10, 33]<br/>class = Class 1>, fillcolor="#75bbed"] ;
526 -> 527 ;
528 [label=<ROI - Return On Investment &le; 0.053<br/>gini = 0.5<br/>samples = 10<br/>value = [7, 7]<br/>class = Class 0>, fillcolor="#ffffff"] ;
527 -> 528 ;
529 [label=<Debt/Equity Ratio &le; 0.031<br/>gini = 0.486<br/>samples = 8<br/>value = [7, 5]<br/>class = Class 0>, fillcolor="#f8dbc6"] ;
528 -> 529 ;
530 [label=<EBITDA Margin &le; -0.202<br/>gini = 0.496<br/>samples = 7<br/>value = [6, 5]<br/>class = Class 0>, fillcolor="#fbeade"] ;
529 -> 530 ;
531 [label=<gini = 0.0<br/>samples = 1<br/>value = [1, 0]<br/>class = Class 0>, fillcolor="#e58139"] ;
530 -> 531 ;
532 [label=<Pre-Tax Profit Margin &le; 0.1<br/>gini = 0.5<br/>samples = 6<br/>value = [5, 5]<br/>class = Class 0>, fillcolor="#ffffff"] ;
530 -> 532 ;
533 [label=<gini = 0.5<br/>samples = 2<br/>value = [2, 2]<br/>class = Class 0>, fillcolor="#ffffff"] ;
532 -> 533 ;
534 [label=<gini = 0.5<br/>samples = 4<br/>value = [3, 3]<br/>class = Class 0>, fillcolor="#ffffff"] ;
532 -> 534 ;
535 [label=<gini = 0.0<br/>samples = 1<br/>value = [1, 0]<br/>class = Class 0>, fillcolor="#e58139"] ;
529 -> 535 ;
536 [label=<gini = 0.0<br/>samples = 2<br/>value = [0, 2]<br/>class = Class 1>, fillcolor="#399de5"] ;
528 -> 536 ;
537 [label=<Gross Margin &le; 0.221<br/>gini = 0.185<br/>samples = 18<br/>value = [3, 26]<br/>class = Class 1>, fillcolor="#50a8e8"] ;
527 -> 537 ;
538 [label=<Debt/Equity Ratio &le; 0.05<br/>gini = 0.071<br/>samples = 17<br/>value = [1, 26]<br/>class = Class 1>, fillcolor="#41a1e6"] ;
537 -> 538 ;
539 [label=<gini = 0.0<br/>samples = 14<br/>value = [0, 22]<br/>class = Class 1>, fillcolor="#399de5"] ;
538 -> 539 ;
540 [label=<gini = 0.32<br/>samples = 3<br/>value = [1, 4]<br/>class = Class 1>, fillcolor="#6ab6ec"] ;
538 -> 540 ;
541 [label=<gini = 0.0<br/>samples = 1<br/>value = [2, 0]<br/>class = Class 0>, fillcolor="#e58139"] ;
537 -> 541 ;
542 [label=<gini = 0.0<br/>samples = 17<br/>value = [0, 25]<br/>class = Class 1>, fillcolor="#399de5"] ;
526 -> 542 ;
543 [label=<Long-term Debt / Capital &le; 0.151<br/>gini = 0.198<br/>samples = 9<br/>value = [16, 2]<br/>class = Class 0>, fillcolor="#e89152"] ;
525 -> 543 ;
544 [label=<gini = 0.0<br/>samples = 1<br/>value = [0, 2]<br/>class = Class 1>, fillcolor="#399de5"] ;
543 -> 544 ;
545 [label=<gini = 0.0<br/>samples = 8<br/>value = [16, 0]<br/>class = Class 0>, fillcolor="#e58139"] ;
543 -> 545 ;
546 [label=<Net Profit Margin &le; -0.0<br/>gini = 0.283<br/>samples = 335<br/>value = [456, 94]<br/>class = Class 0>, fillcolor="#ea9b62"] ;
524 -> 546 ;
547 [label=<Pre-Tax Profit Margin &le; 0.035<br/>gini = 0.202<br/>samples = 227<br/>value = [335, 43]<br/>class = Class 0>, fillcolor="#e89152"] ;
546 -> 547 ;
548 [label=<Free Cash Flow Per Share &le; 0.188<br/>gini = 0.155<br/>samples = 212<br/>value = [324, 30]<br/>class = Class 0>, fillcolor="#e78d4b"] ;
547 -> 548 ;
549 [label=<EBIT Margin &le; -0.268<br/>gini = 0.077<br/>samples = 152<br/>value = [239, 10]<br/>class = Class 0>, fillcolor="#e68641"] ;
548 -> 549 ;
550 [label=<Operating Margin &le; -0.272<br/>gini = 0.5<br/>samples = 5<br/>value = [3, 3]<br/>class = Class 0>, fillcolor="#ffffff"] ;
549 -> 550 ;
551 [label=<gini = 0.0<br/>samples = 3<br/>value = [3, 0]<br/>class = Class 0>, fillcolor="#e58139"] ;
550 -> 551 ;
552 [label=<gini = 0.0<br/>samples = 2<br/>value = [0, 3]<br/>class = Class 1>, fillcolor="#399de5"] ;
550 -> 552 ;
553 [label=<Pre-Tax Profit Margin &le; -0.01<br/>gini = 0.056<br/>samples = 147<br/>value = [236, 7]<br/>class = Class 0>, fillcolor="#e6853f"] ;
549 -> 553 ;
554 [label=<Gross Margin &le; -1.433<br/>gini = 0.018<br/>samples = 137<br/>value = [223, 2]<br/>class = Class 0>, fillcolor="#e5823b"] ;
553 -> 554 ;
555 [label=<gini = 0.0<br/>samples = 1<br/>value = [0, 1]<br/>class = Class 1>, fillcolor="#399de5"] ;
554 -> 555 ;
556 [label=<Gross Margin &le; -0.13<br/>gini = 0.009<br/>samples = 136<br/>value = [223, 1]<br/>class = Class 0>, fillcolor="#e5823a"] ;
554 -> 556 ;
557 [label=<gini = 0.0<br/>samples = 122<br/>value = [206, 0]<br/>class = Class 0>, fillcolor="#e58139"] ;
556 -> 557 ;
558 [label=<EBIT Margin &le; -0.148<br/>gini = 0.105<br/>samples = 14<br/>value = [17, 1]<br/>class = Class 0>, fillcolor="#e78845"] ;
556 -> 558 ;
559 [label=<gini = 0.0<br/>samples = 1<br/>value = [0, 1]<br/>class = Class 1>, fillcolor="#399de5"] ;
558 -> 559 ;
560 [label=<gini = 0.0<br/>samples = 13<br/>value = [17, 0]<br/>class = Class 0>, fillcolor="#e58139"] ;
558 -> 560 ;
561 [label=<Pre-Tax Profit Margin &le; -0.006<br/>gini = 0.401<br/>samples = 10<br/>value = [13, 5]<br/>class = Class 0>, fillcolor="#efb185"] ;
553 -> 561 ;
562 [label=<gini = 0.0<br/>samples = 3<br/>value = [0, 5]<br/>class = Class 1>, fillcolor="#399de5"] ;
561 -> 562 ;
563 [label=<gini = 0.0<br/>samples = 7<br/>value = [13, 0]<br/>class = Class 0>, fillcolor="#e58139"] ;
561 -> 563 ;
564 [label=<Free Cash Flow Per Share &le; 0.227<br/>gini = 0.308<br/>samples = 60<br/>value = [85, 20]<br/>class = Class 0>, fillcolor="#eb9f68"] ;
548 -> 564 ;
565 [label=<Gross Margin &le; -1.163<br/>gini = 0.49<br/>samples = 12<br/>value = [9, 12]<br/>class = Class 1>, fillcolor="#cee6f8"] ;
564 -> 565 ;
566 [label=<gini = 0.0<br/>samples = 4<br/>value = [8, 0]<br/>class = Class 0>, fillcolor="#e58139"] ;
565 -> 566 ;
567 [label=<ROA - Return On Assets &le; 0.019<br/>gini = 0.142<br/>samples = 8<br/>value = [1, 12]<br/>class = Class 1>, fillcolor="#49a5e7"] ;
565 -> 567 ;
568 [label=<gini = 0.444<br/>samples = 2<br/>value = [1, 2]<br/>class = Class 1>, fillcolor="#9ccef2"] ;
567 -> 568 ;
569 [label=<gini = 0.0<br/>samples = 6<br/>value = [0, 10]<br/>class = Class 1>, fillcolor="#399de5"] ;
567 -> 569 ;
570 [label=<Pre-Tax Profit Margin &le; -0.078<br/>gini = 0.172<br/>samples = 48<br/>value = [76, 8]<br/>class = Class 0>, fillcolor="#e88e4e"] ;
564 -> 570 ;
571 [label=<Long-term Debt / Capital &le; 0.211<br/>gini = 0.038<br/>samples = 29<br/>value = [50, 1]<br/>class = Class 0>, fillcolor="#e6843d"] ;
570 -> 571 ;
572 [label=<gini = 0.0<br/>samples = 18<br/>value = [31, 0]<br/>class = Class 0>, fillcolor="#e58139"] ;
571 -> 572 ;
573 [label=<gini = 0.095<br/>samples = 11<br/>value = [19, 1]<br/>class = Class 0>, fillcolor="#e68843"] ;
571 -> 573 ;
574 [label=<Net Profit Margin &le; -0.047<br/>gini = 0.334<br/>samples = 19<br/>value = [26, 7]<br/>class = Class 0>, fillcolor="#eca36e"] ;
570 -> 574 ;
575 [label=<Operating Cash Flow Per Share &le; 0.801<br/>gini = 0.42<br/>samples = 6<br/>value = [3, 7]<br/>class = Class 1>, fillcolor="#8ec7f0"] ;
574 -> 575 ;
576 [label=<Pre-Tax Profit Margin &le; -0.058<br/>gini = 0.346<br/>samples = 5<br/>value = [2, 7]<br/>class = Class 1>, fillcolor="#72b9ec"] ;
575 -> 576 ;
577 [label=<gini = 0.444<br/>samples = 3<br/>value = [2, 4]<br/>class = Class 1>, fillcolor="#9ccef2"] ;
576 -> 577 ;
578 [label=<gini = 0.0<br/>samples = 2<br/>value = [0, 3]<br/>class = Class 1>, fillcolor="#399de5"] ;
576 -> 578 ;
579 [label=<gini = 0.0<br/>samples = 1<br/>value = [1, 0]<br/>class = Class 0>, fillcolor="#e58139"] ;
575 -> 579 ;
580 [label=<gini = 0.0<br/>samples = 13<br/>value = [23, 0]<br/>class = Class 0>, fillcolor="#e58139"] ;
574 -> 580 ;
581 [label=<EBITDA Margin &le; 0.13<br/>gini = 0.497<br/>samples = 15<br/>value = [11, 13]<br/>class = Class 1>, fillcolor="#e1f0fb"] ;
547 -> 581 ;
582 [label=<Pre-Tax Profit Margin &le; 0.116<br/>gini = 0.26<br/>samples = 9<br/>value = [2, 11]<br/>class = Class 1>, fillcolor="#5dafea"] ;
581 -> 582 ;
583 [label=<gini = 0.0<br/>samples = 8<br/>value = [0, 11]<br/>class = Class 1>, fillcolor="#399de5"] ;
582 -> 583 ;
584 [label=<gini = 0.0<br/>samples = 1<br/>value = [2, 0]<br/>class = Class 0>, fillcolor="#e58139"] ;
582 -> 584 ;
585 [label=<ROI - Return On Investment &le; -0.016<br/>gini = 0.298<br/>samples = 6<br/>value = [9, 2]<br/>class = Class 0>, fillcolor="#eb9d65"] ;
581 -> 585 ;
586 [label=<gini = 0.0<br/>samples = 2<br/>value = [0, 2]<br/>class = Class 1>, fillcolor="#399de5"] ;
585 -> 586 ;
587 [label=<gini = 0.0<br/>samples = 4<br/>value = [9, 0]<br/>class = Class 0>, fillcolor="#e58139"] ;
585 -> 587 ;
588 [label=<Return On Tangible Equity &le; 0.035<br/>gini = 0.417<br/>samples = 108<br/>value = [121, 51]<br/>class = Class 0>, fillcolor="#f0b68c"] ;
546 -> 588 ;
589 [label=<Net Profit Margin &le; 0.037<br/>gini = 0.337<br/>samples = 93<br/>value = [117, 32]<br/>class = Class 0>, fillcolor="#eca36f"] ;
588 -> 589 ;
590 [label=<Net Profit Margin &le; 0.003<br/>gini = 0.185<br/>samples = 62<br/>value = [87, 10]<br/>class = Class 0>, fillcolor="#e88f50"] ;
589 -> 590 ;
591 [label=<gini = 0.0<br/>samples = 2<br/>value = [0, 2]<br/>class = Class 1>, fillcolor="#399de5"] ;
590 -> 591 ;
592 [label=<ROI - Return On Investment &le; 0.06<br/>gini = 0.154<br/>samples = 60<br/>value = [87, 8]<br/>class = Class 0>, fillcolor="#e78d4b"] ;
590 -> 592 ;
593 [label=<gini = 0.0<br/>samples = 34<br/>value = [58, 0]<br/>class = Class 0>, fillcolor="#e58139"] ;
592 -> 593 ;
594 [label=<Asset Turnover &le; 0.493<br/>gini = 0.339<br/>samples = 26<br/>value = [29, 8]<br/>class = Class 0>, fillcolor="#eca470"] ;
592 -> 594 ;
595 [label=<ROI - Return On Investment &le; 0.077<br/>gini = 0.251<br/>samples = 25<br/>value = [29, 5]<br/>class = Class 0>, fillcolor="#e9975b"] ;
594 -> 595 ;
596 [label=<Asset Turnover &le; -0.055<br/>gini = 0.375<br/>samples = 4<br/>value = [1, 3]<br/>class = Class 1>, fillcolor="#7bbeee"] ;
595 -> 596 ;
597 [label=<gini = 0.5<br/>samples = 2<br/>value = [1, 1]<br/>class = Class 0>, fillcolor="#ffffff"] ;
596 -> 597 ;
598 [label=<gini = 0.0<br/>samples = 2<br/>value = [0, 2]<br/>class = Class 1>, fillcolor="#399de5"] ;
596 -> 598 ;
599 [label=<Debt/Equity Ratio &le; 0.071<br/>gini = 0.124<br/>samples = 21<br/>value = [28, 2]<br/>class = Class 0>, fillcolor="#e78a47"] ;
595 -> 599 ;
600 [label=<gini = 0.0<br/>samples = 16<br/>value = [21, 0]<br/>class = Class 0>, fillcolor="#e58139"] ;
599 -> 600 ;
601 [label=<Return On Tangible Equity &le; -0.536<br/>gini = 0.346<br/>samples = 5<br/>value = [7, 2]<br/>class = Class 0>, fillcolor="#eca572"] ;
599 -> 601 ;
602 [label=<gini = 0.0<br/>samples = 1<br/>value = [2, 0]<br/>class = Class 0>, fillcolor="#e58139"] ;
601 -> 602 ;
603 [label=<gini = 0.408<br/>samples = 4<br/>value = [5, 2]<br/>class = Class 0>, fillcolor="#efb388"] ;
601 -> 603 ;
604 [label=<gini = 0.0<br/>samples = 1<br/>value = [0, 3]<br/>class = Class 1>, fillcolor="#399de5"] ;
594 -> 604 ;
605 [label=<ROA - Return On Assets &le; 0.069<br/>gini = 0.488<br/>samples = 31<br/>value = [30, 22]<br/>class = Class 0>, fillcolor="#f8ddca"] ;
589 -> 605 ;
606 [label=<EBITDA Margin &le; -0.014<br/>gini = 0.43<br/>samples = 20<br/>value = [10, 22]<br/>class = Class 1>, fillcolor="#93caf1"] ;
605 -> 606 ;
607 [label=<Current Ratio &le; 0.098<br/>gini = 0.091<br/>samples = 14<br/>value = [1, 20]<br/>class = Class 1>, fillcolor="#43a2e6"] ;
606 -> 607 ;
608 [label=<gini = 0.0<br/>samples = 13<br/>value = [0, 20]<br/>class = Class 1>, fillcolor="#399de5"] ;
607 -> 608 ;
609 [label=<gini = 0.0<br/>samples = 1<br/>value = [1, 0]<br/>class = Class 0>, fillcolor="#e58139"] ;
607 -> 609 ;
610 [label=<Asset Turnover &le; -0.546<br/>gini = 0.298<br/>samples = 6<br/>value = [9, 2]<br/>class = Class 0>, fillcolor="#eb9d65"] ;
606 -> 610 ;
611 [label=<Gross Margin &le; 0.481<br/>gini = 0.444<br/>samples = 3<br/>value = [1, 2]<br/>class = Class 1>, fillcolor="#9ccef2"] ;
610 -> 611 ;
612 [label=<gini = 0.0<br/>samples = 1<br/>value = [1, 0]<br/>class = Class 0>, fillcolor="#e58139"] ;
611 -> 612 ;
613 [label=<gini = 0.0<br/>samples = 2<br/>value = [0, 2]<br/>class = Class 1>, fillcolor="#399de5"] ;
611 -> 613 ;
614 [label=<gini = 0.0<br/>samples = 3<br/>value = [8, 0]<br/>class = Class 0>, fillcolor="#e58139"] ;
610 -> 614 ;
615 [label=<gini = 0.0<br/>samples = 11<br/>value = [20, 0]<br/>class = Class 0>, fillcolor="#e58139"] ;
605 -> 615 ;
616 [label=<ROA - Return On Assets &le; 0.08<br/>gini = 0.287<br/>samples = 15<br/>value = [4, 19]<br/>class = Class 1>, fillcolor="#63b2ea"] ;
588 -> 616 ;
617 [label=<gini = 0.0<br/>samples = 11<br/>value = [0, 19]<br/>class = Class 1>, fillcolor="#399de5"] ;
616 -> 617 ;
618 [label=<gini = 0.0<br/>samples = 4<br/>value = [4, 0]<br/>class = Class 0>, fillcolor="#e58139"] ;
616 -> 618 ;
619 [label=<Pre-Tax Profit Margin &le; 0.026<br/>gini = 0.491<br/>samples = 77<br/>value = [53, 69]<br/>class = Class 1>, fillcolor="#d1e8f9"] ;
523 -> 619 ;
620 [label=<ROE - Return On Equity &le; 0.036<br/>gini = 0.465<br/>samples = 43<br/>value = [43, 25]<br/>class = Class 0>, fillcolor="#f4caac"] ;
619 -> 620 ;
621 [label=<gini = 0.0<br/>samples = 9<br/>value = [0, 13]<br/>class = Class 1>, fillcolor="#399de5"] ;
620 -> 621 ;
622 [label=<Current Ratio &le; -0.309<br/>gini = 0.341<br/>samples = 34<br/>value = [43, 12]<br/>class = Class 0>, fillcolor="#eca470"] ;
620 -> 622 ;
623 [label=<Pre-Tax Profit Margin &le; -0.052<br/>gini = 0.488<br/>samples = 12<br/>value = [8, 11]<br/>class = Class 1>, fillcolor="#c9e4f8"] ;
622 -> 623 ;
624 [label=<Pre-Tax Profit Margin &le; -0.068<br/>gini = 0.298<br/>samples = 6<br/>value = [2, 9]<br/>class = Class 1>, fillcolor="#65b3eb"] ;
623 -> 624 ;
625 [label=<gini = 0.0<br/>samples = 1<br/>value = [0, 2]<br/>class = Class 1>, fillcolor="#399de5"] ;
624 -> 625 ;
626 [label=<gini = 0.346<br/>samples = 5<br/>value = [2, 7]<br/>class = Class 1>, fillcolor="#72b9ec"] ;
624 -> 626 ;
627 [label=<Pre-Tax Profit Margin &le; 0.002<br/>gini = 0.375<br/>samples = 6<br/>value = [6, 2]<br/>class = Class 0>, fillcolor="#eeab7b"] ;
623 -> 627 ;
628 [label=<gini = 0.0<br/>samples = 3<br/>value = [5, 0]<br/>class = Class 0>, fillcolor="#e58139"] ;
627 -> 628 ;
629 [label=<Gross Margin &le; 0.138<br/>gini = 0.444<br/>samples = 3<br/>value = [1, 2]<br/>class = Class 1>, fillcolor="#9ccef2"] ;
627 -> 629 ;
630 [label=<gini = 0.0<br/>samples = 2<br/>value = [0, 2]<br/>class = Class 1>, fillcolor="#399de5"] ;
629 -> 630 ;
631 [label=<gini = 0.0<br/>samples = 1<br/>value = [1, 0]<br/>class = Class 0>, fillcolor="#e58139"] ;
629 -> 631 ;
632 [label=<Pre-Tax Profit Margin &le; -0.081<br/>gini = 0.054<br/>samples = 22<br/>value = [35, 1]<br/>class = Class 0>, fillcolor="#e6853f"] ;
622 -> 632 ;
633 [label=<Return On Tangible Equity &le; 0.164<br/>gini = 0.375<br/>samples = 3<br/>value = [3, 1]<br/>class = Class 0>, fillcolor="#eeab7b"] ;
632 -> 633 ;
634 [label=<gini = 0.0<br/>samples = 1<br/>value = [0, 1]<br/>class = Class 1>, fillcolor="#399de5"] ;
633 -> 634 ;
635 [label=<gini = 0.0<br/>samples = 2<br/>value = [3, 0]<br/>class = Class 0>, fillcolor="#e58139"] ;
633 -> 635 ;
636 [label=<gini = 0.0<br/>samples = 19<br/>value = [32, 0]<br/>class = Class 0>, fillcolor="#e58139"] ;
632 -> 636 ;
637 [label=<Operating Cash Flow Per Share &le; -0.379<br/>gini = 0.302<br/>samples = 34<br/>value = [10, 44]<br/>class = Class 1>, fillcolor="#66b3eb"] ;
619 -> 637 ;
638 [label=<gini = 0.0<br/>samples = 2<br/>value = [2, 0]<br/>class = Class 0>, fillcolor="#e58139"] ;
637 -> 638 ;
639 [label=<ROA - Return On Assets &le; 0.341<br/>gini = 0.26<br/>samples = 32<br/>value = [8, 44]<br/>class = Class 1>, fillcolor="#5dafea"] ;
637 -> 639 ;
640 [label=<ROI - Return On Investment &le; 0.178<br/>gini = 0.5<br/>samples = 10<br/>value = [7, 7]<br/>class = Class 0>, fillcolor="#ffffff"] ;
639 -> 640 ;
641 [label=<Free Cash Flow Per Share &le; 0.013<br/>gini = 0.278<br/>samples = 4<br/>value = [1, 5]<br/>class = Class 1>, fillcolor="#61b1ea"] ;
640 -> 641 ;
642 [label=<gini = 0.0<br/>samples = 1<br/>value = [1, 0]<br/>class = Class 0>, fillcolor="#e58139"] ;
641 -> 642 ;
643 [label=<gini = 0.0<br/>samples = 3<br/>value = [0, 5]<br/>class = Class 1>, fillcolor="#399de5"] ;
641 -> 643 ;
644 [label=<Gross Margin &le; -1.247<br/>gini = 0.375<br/>samples = 6<br/>value = [6, 2]<br/>class = Class 0>, fillcolor="#eeab7b"] ;
640 -> 644 ;
645 [label=<gini = 0.0<br/>samples = 2<br/>value = [0, 2]<br/>class = Class 1>, fillcolor="#399de5"] ;
644 -> 645 ;
646 [label=<gini = 0.0<br/>samples = 4<br/>value = [6, 0]<br/>class = Class 0>, fillcolor="#e58139"] ;
644 -> 646 ;
647 [label=<Debt/Equity Ratio &le; 0.688<br/>gini = 0.051<br/>samples = 22<br/>value = [1, 37]<br/>class = Class 1>, fillcolor="#3ea0e6"] ;
639 -> 647 ;
648 [label=<gini = 0.0<br/>samples = 21<br/>value = [0, 37]<br/>class = Class 1>, fillcolor="#399de5"] ;
647 -> 648 ;
649 [label=<gini = 0.0<br/>samples = 1<br/>value = [1, 0]<br/>class = Class 0>, fillcolor="#e58139"] ;
647 -> 649 ;
650 [label=<EBITDA Margin &le; -0.308<br/>gini = 0.41<br/>samples = 2267<br/>value = [1040, 2576]<br/>class = Class 1>, fillcolor="#89c5ef"] ;
262 -> 650 ;
651 [label=<Gross Margin &le; 1.544<br/>gini = 0.221<br/>samples = 83<br/>value = [124, 18]<br/>class = Class 0>, fillcolor="#e99356"] ;
650 -> 651 ;
652 [label=<Long-term Debt / Capital &le; -0.155<br/>gini = 0.182<br/>samples = 81<br/>value = [124, 14]<br/>class = Class 0>, fillcolor="#e88f4f"] ;
651 -> 652 ;
653 [label=<gini = 0.0<br/>samples = 2<br/>value = [0, 4]<br/>class = Class 1>, fillcolor="#399de5"] ;
652 -> 653 ;
654 [label=<ROE - Return On Equity &le; -0.005<br/>gini = 0.138<br/>samples = 79<br/>value = [124, 10]<br/>class = Class 0>, fillcolor="#e78b49"] ;
652 -> 654 ;
655 [label=<ROA - Return On Assets &le; 0.21<br/>gini = 0.295<br/>samples = 22<br/>value = [32, 7]<br/>class = Class 0>, fillcolor="#eb9d64"] ;
654 -> 655 ;
656 [label=<EBITDA Margin &le; -0.357<br/>gini = 0.497<br/>samples = 7<br/>value = [6, 7]<br/>class = Class 1>, fillcolor="#e3f1fb"] ;
655 -> 656 ;
657 [label=<ROI - Return On Investment &le; 0.009<br/>gini = 0.346<br/>samples = 5<br/>value = [2, 7]<br/>class = Class 1>, fillcolor="#72b9ec"] ;
656 -> 657 ;
658 [label=<gini = 0.444<br/>samples = 3<br/>value = [2, 4]<br/>class = Class 1>, fillcolor="#9ccef2"] ;
657 -> 658 ;
659 [label=<gini = 0.0<br/>samples = 2<br/>value = [0, 3]<br/>class = Class 1>, fillcolor="#399de5"] ;
657 -> 659 ;
660 [label=<gini = 0.0<br/>samples = 2<br/>value = [4, 0]<br/>class = Class 0>, fillcolor="#e58139"] ;
656 -> 660 ;
661 [label=<gini = 0.0<br/>samples = 15<br/>value = [26, 0]<br/>class = Class 0>, fillcolor="#e58139"] ;
655 -> 661 ;
662 [label=<ROI - Return On Investment &le; 0.896<br/>gini = 0.061<br/>samples = 57<br/>value = [92, 3]<br/>class = Class 0>, fillcolor="#e6853f"] ;
654 -> 662 ;
663 [label=<Asset Turnover &le; -0.718<br/>gini = 0.025<br/>samples = 49<br/>value = [79, 1]<br/>class = Class 0>, fillcolor="#e5833c"] ;
662 -> 663 ;
664 [label=<gini = 0.444<br/>samples = 2<br/>value = [2, 1]<br/>class = Class 0>, fillcolor="#f2c09c"] ;
663 -> 664 ;
665 [label=<gini = 0.0<br/>samples = 47<br/>value = [77, 0]<br/>class = Class 0>, fillcolor="#e58139"] ;
663 -> 665 ;
666 [label=<EBITDA Margin &le; -0.469<br/>gini = 0.231<br/>samples = 8<br/>value = [13, 2]<br/>class = Class 0>, fillcolor="#e99457"] ;
662 -> 666 ;
667 [label=<gini = 0.0<br/>samples = 6<br/>value = [11, 0]<br/>class = Class 0>, fillcolor="#e58139"] ;
666 -> 667 ;
668 [label=<gini = 0.5<br/>samples = 2<br/>value = [2, 2]<br/>class = Class 0>, fillcolor="#ffffff"] ;
666 -> 668 ;
669 [label=<gini = 0.0<br/>samples = 2<br/>value = [0, 4]<br/>class = Class 1>, fillcolor="#399de5"] ;
651 -> 669 ;
670 [label=<ROE - Return On Equity &le; -0.035<br/>gini = 0.388<br/>samples = 2184<br/>value = [916, 2558]<br/>class = Class 1>, fillcolor="#80c0ee"] ;
650 -> 670 ;
671 [label=<Current Ratio &le; -0.497<br/>gini = 0.471<br/>samples = 105<br/>value = [90, 55]<br/>class = Class 0>, fillcolor="#f5ceb2"] ;
670 -> 671 ;
672 [label=<ROE - Return On Equity &le; -0.433<br/>gini = 0.128<br/>samples = 21<br/>value = [2, 27]<br/>class = Class 1>, fillcolor="#48a4e7"] ;
671 -> 672 ;
673 [label=<Pre-Tax Profit Margin &le; 0.082<br/>gini = 0.444<br/>samples = 5<br/>value = [2, 4]<br/>class = Class 1>, fillcolor="#9ccef2"] ;
672 -> 673 ;
674 [label=<gini = 0.444<br/>samples = 2<br/>value = [2, 1]<br/>class = Class 0>, fillcolor="#f2c09c"] ;
673 -> 674 ;
675 [label=<gini = 0.0<br/>samples = 3<br/>value = [0, 3]<br/>class = Class 1>, fillcolor="#399de5"] ;
673 -> 675 ;
676 [label=<gini = 0.0<br/>samples = 16<br/>value = [0, 23]<br/>class = Class 1>, fillcolor="#399de5"] ;
672 -> 676 ;
677 [label=<Asset Turnover &le; -0.868<br/>gini = 0.366<br/>samples = 84<br/>value = [88, 28]<br/>class = Class 0>, fillcolor="#eda978"] ;
671 -> 677 ;
678 [label=<Net Profit Margin &le; 0.85<br/>gini = 0.397<br/>samples = 15<br/>value = [6, 16]<br/>class = Class 1>, fillcolor="#83c2ef"] ;
677 -> 678 ;
679 [label=<gini = 0.0<br/>samples = 11<br/>value = [0, 16]<br/>class = Class 1>, fillcolor="#399de5"] ;
678 -> 679 ;
680 [label=<gini = 0.0<br/>samples = 4<br/>value = [6, 0]<br/>class = Class 0>, fillcolor="#e58139"] ;
678 -> 680 ;
681 [label=<Net Profit Margin &le; 0.636<br/>gini = 0.223<br/>samples = 69<br/>value = [82, 12]<br/>class = Class 0>, fillcolor="#e99356"] ;
677 -> 681 ;
682 [label=<Operating Margin &le; 0.031<br/>gini = 0.111<br/>samples = 62<br/>value = [80, 5]<br/>class = Class 0>, fillcolor="#e78945"] ;
681 -> 682 ;
683 [label=<Long-term Debt / Capital &le; -0.148<br/>gini = 0.375<br/>samples = 3<br/>value = [1, 3]<br/>class = Class 1>, fillcolor="#7bbeee"] ;
682 -> 683 ;
684 [label=<gini = 0.0<br/>samples = 1<br/>value = [1, 0]<br/>class = Class 0>, fillcolor="#e58139"] ;
683 -> 684 ;
685 [label=<gini = 0.0<br/>samples = 2<br/>value = [0, 3]<br/>class = Class 1>, fillcolor="#399de5"] ;
683 -> 685 ;
686 [label=<EBIT Margin &le; 0.175<br/>gini = 0.048<br/>samples = 59<br/>value = [79, 2]<br/>class = Class 0>, fillcolor="#e6843e"] ;
682 -> 686 ;
687 [label=<Pre-Tax Profit Margin &le; 0.157<br/>gini = 0.408<br/>samples = 7<br/>value = [5, 2]<br/>class = Class 0>, fillcolor="#efb388"] ;
686 -> 687 ;
688 [label=<gini = 0.0<br/>samples = 5<br/>value = [5, 0]<br/>class = Class 0>, fillcolor="#e58139"] ;
687 -> 688 ;
689 [label=<gini = 0.0<br/>samples = 2<br/>value = [0, 2]<br/>class = Class 1>, fillcolor="#399de5"] ;
687 -> 689 ;
690 [label=<gini = 0.0<br/>samples = 52<br/>value = [74, 0]<br/>class = Class 0>, fillcolor="#e58139"] ;
686 -> 690 ;
691 [label=<Operating Cash Flow Per Share &le; 0.173<br/>gini = 0.346<br/>samples = 7<br/>value = [2, 7]<br/>class = Class 1>, fillcolor="#72b9ec"] ;
681 -> 691 ;
692 [label=<gini = 0.0<br/>samples = 6<br/>value = [0, 7]<br/>class = Class 1>, fillcolor="#399de5"] ;
691 -> 692 ;
693 [label=<gini = 0.0<br/>samples = 1<br/>value = [2, 0]<br/>class = Class 0>, fillcolor="#e58139"] ;
691 -> 693 ;
694 [label=<ROA - Return On Assets &le; 0.489<br/>gini = 0.373<br/>samples = 2079<br/>value = [826, 2503]<br/>class = Class 1>, fillcolor="#7abdee"] ;
670 -> 694 ;
695 [label=<Long-term Debt / Capital &le; 0.043<br/>gini = 0.416<br/>samples = 1358<br/>value = [644, 1541]<br/>class = Class 1>, fillcolor="#8cc6f0"] ;
694 -> 695 ;
696 [label=<Operating Margin &le; 0.917<br/>gini = 0.363<br/>samples = 1105<br/>value = [429, 1369]<br/>class = Class 1>, fillcolor="#77bced"] ;
695 -> 696 ;
697 [label=<Current Ratio &le; -0.253<br/>gini = 0.339<br/>samples = 1054<br/>value = [369, 1336]<br/>class = Class 1>, fillcolor="#70b8ec"] ;
696 -> 697 ;
698 [label=<ROI - Return On Investment &le; -0.071<br/>gini = 0.201<br/>samples = 577<br/>value = [106, 829]<br/>class = Class 1>, fillcolor="#52aae8"] ;
697 -> 698 ;
699 [label=<gini = 0.0<br/>samples = 2<br/>value = [5, 0]<br/>class = Class 0>, fillcolor="#e58139"] ;
698 -> 699 ;
700 [label=<Return On Tangible Equity &le; -0.765<br/>gini = 0.194<br/>samples = 575<br/>value = [101, 829]<br/>class = Class 1>, fillcolor="#51a9e8"] ;
698 -> 700 ;
701 [label=<gini = 0.0<br/>samples = 3<br/>value = [7, 0]<br/>class = Class 0>, fillcolor="#e58139"] ;
700 -> 701 ;
702 [label=<Free Cash Flow Per Share &le; -7.371<br/>gini = 0.183<br/>samples = 572<br/>value = [94, 829]<br/>class = Class 1>, fillcolor="#4fa8e8"] ;
700 -> 702 ;
703 [label=<gini = 0.0<br/>samples = 4<br/>value = [7, 0]<br/>class = Class 0>, fillcolor="#e58139"] ;
702 -> 703 ;
704 [label=<Asset Turnover &le; -0.972<br/>gini = 0.172<br/>samples = 568<br/>value = [87, 829]<br/>class = Class 1>, fillcolor="#4ea7e8"] ;
702 -> 704 ;
705 [label=<gini = 0.0<br/>samples = 8<br/>value = [13, 0]<br/>class = Class 0>, fillcolor="#e58139"] ;
704 -> 705 ;
706 [label=<Operating Cash Flow Per Share &le; -0.409<br/>gini = 0.15<br/>samples = 560<br/>value = [74, 829]<br/>class = Class 1>, fillcolor="#4ba6e7"] ;
704 -> 706 ;
707 [label=<Net Profit Margin &le; 0.115<br/>gini = 0.492<br/>samples = 16<br/>value = [14, 18]<br/>class = Class 1>, fillcolor="#d3e9f9"] ;
706 -> 707 ;
708 [label=<gini = 0.0<br/>samples = 6<br/>value = [10, 0]<br/>class = Class 0>, fillcolor="#e58139"] ;
707 -> 708 ;
709 [label=<Net Profit Margin &le; 0.43<br/>gini = 0.298<br/>samples = 10<br/>value = [4, 18]<br/>class = Class 1>, fillcolor="#65b3eb"] ;
707 -> 709 ;
710 [label=<gini = 0.0<br/>samples = 6<br/>value = [0, 13]<br/>class = Class 1>, fillcolor="#399de5"] ;
709 -> 710 ;
711 [label=<Debt/Equity Ratio &le; -0.006<br/>gini = 0.494<br/>samples = 4<br/>value = [4, 5]<br/>class = Class 1>, fillcolor="#d7ebfa"] ;
709 -> 711 ;
712 [label=<gini = 0.0<br/>samples = 2<br/>value = [0, 5]<br/>class = Class 1>, fillcolor="#399de5"] ;
711 -> 712 ;
713 [label=<gini = 0.0<br/>samples = 2<br/>value = [4, 0]<br/>class = Class 0>, fillcolor="#e58139"] ;
711 -> 713 ;
714 [label=<EBITDA Margin &le; 1.2<br/>gini = 0.128<br/>samples = 544<br/>value = [60, 811]<br/>class = Class 1>, fillcolor="#48a4e7"] ;
706 -> 714 ;
715 [label=<Net Profit Margin &le; 0.479<br/>gini = 0.1<br/>samples = 516<br/>value = [44, 787]<br/>class = Class 1>, fillcolor="#44a2e6"] ;
714 -> 715 ;
716 [label=<Pre-Tax Profit Margin &le; -0.052<br/>gini = 0.076<br/>samples = 483<br/>value = [31, 751]<br/>class = Class 1>, fillcolor="#41a1e6"] ;
715 -> 716 ;
717 [label=<gini = 0.0<br/>samples = 1<br/>value = [1, 0]<br/>class = Class 0>, fillcolor="#e58139"] ;
716 -> 717 ;
718 [label=<Current Ratio &le; -0.347<br/>gini = 0.074<br/>samples = 482<br/>value = [30, 751]<br/>class = Class 1>, fillcolor="#41a1e6"] ;
716 -> 718 ;
719 [label=<Gross Margin &le; 0.183<br/>gini = 0.037<br/>samples = 365<br/>value = [11, 579]<br/>class = Class 1>, fillcolor="#3d9fe5"] ;
718 -> 719 ;
720 [label=<Operating Cash Flow Per Share &le; -0.319<br/>gini = 0.087<br/>samples = 114<br/>value = [9, 189]<br/>class = Class 1>, fillcolor="#42a2e6"] ;
719 -> 720 ;
721 [label=<gini = 0.0<br/>samples = 1<br/>value = [1, 0]<br/>class = Class 0>, fillcolor="#e58139"] ;
720 -> 721 ;
722 [label=<EBITDA Margin &le; 0.271<br/>gini = 0.078<br/>samples = 113<br/>value = [8, 189]<br/>class = Class 1>, fillcolor="#41a1e6"] ;
720 -> 722 ;
723 [label=<Asset Turnover &le; -0.668<br/>gini = 0.013<br/>samples = 83<br/>value = [1, 149]<br/>class = Class 1>, fillcolor="#3a9ee5"] ;
722 -> 723 ;
724 [label=<Free Cash Flow Per Share &le; -0.199<br/>gini = 0.245<br/>samples = 5<br/>value = [1, 6]<br/>class = Class 1>, fillcolor="#5aade9"] ;
723 -> 724 ;
725 [label=<gini = 0.0<br/>samples = 1<br/>value = [1, 0]<br/>class = Class 0>, fillcolor="#e58139"] ;
724 -> 725 ;
726 [label=<gini = 0.0<br/>samples = 4<br/>value = [0, 6]<br/>class = Class 1>, fillcolor="#399de5"] ;
724 -> 726 ;
727 [label=<gini = 0.0<br/>samples = 78<br/>value = [0, 143]<br/>class = Class 1>, fillcolor="#399de5"] ;
723 -> 727 ;
728 [label=<Operating Cash Flow Per Share &le; -0.104<br/>gini = 0.254<br/>samples = 30<br/>value = [7, 40]<br/>class = Class 1>, fillcolor="#5caeea"] ;
722 -> 728 ;
729 [label=<Net Profit Margin &le; 0.278<br/>gini = 0.469<br/>samples = 7<br/>value = [5, 3]<br/>class = Class 0>, fillcolor="#f5cdb0"] ;
728 -> 729 ;
730 [label=<gini = 0.0<br/>samples = 4<br/>value = [5, 0]<br/>class = Class 0>, fillcolor="#e58139"] ;
729 -> 730 ;
731 [label=<gini = 0.0<br/>samples = 3<br/>value = [0, 3]<br/>class = Class 1>, fillcolor="#399de5"] ;
729 -> 731 ;
732 [label=<Current Ratio &le; -0.618<br/>gini = 0.097<br/>samples = 23<br/>value = [2, 37]<br/>class = Class 1>, fillcolor="#44a2e6"] ;
728 -> 732 ;
733 [label=<gini = 0.375<br/>samples = 2<br/>value = [1, 3]<br/>class = Class 1>, fillcolor="#7bbeee"] ;
732 -> 733 ;
